{"learner":{"attributes":{"best_iteration":"188","best_score":"0.19389149347941081","scikit_learn":"{\"_estimator_type\": \"regressor\"}"},"feature_names":[],"feature_types":[],"gradient_booster":{"model":{"gbtree_model_param":{"num_parallel_tree":"1","num_trees":"219"},"iteration_indptr":[0,1,2,3,4,5,6,7,8,9,10,11,12,13,14,15,16,17,18,19,20,21,22,23,24,25,26,27,28,29,30,31,32,33,34,35,36,37,38,39,40,41,42,43,44,45,46,47,48,49,50,51,52,53,54,55,56,57,58,59,60,61,62,63,64,65,66,67,68,69,70,71,72,73,74,75,76,77,78,79,80,81,82,83,84,85,86,87,88,89,90,91,92,93,94,95,96,97,98,99,100,101,102,103,104,105,106,107,108,109,110,111,112,113,114,115,116,117,118,119,120,121,122,123,124,125,126,127,128,129,130,131,132,133,134,135,136,137,138,139,140,141,142,143,144,145,146,147,148,149,150,151,152,153,154,155,156,157,158,159,160,161,162,163,164,165,166,167,168,169,170,171,172,173,174,175,176,177,178,179,180,181,182,183,184,185,186,187,188,189,190,191,192,193,194,195,196,197,198,199,200,201,202,203,204,205,206,207,208,209,210,211,212,213,214,215,216,217,218,219],"tree_info":[0,0,0,0,0,0,0,0,0,0,0,0,0,0,0,0,0,0,0,0,0,0,0,0,0,0,0,0,0,0,0,0,0,0,0,0,0,0,0,0,0,0,0,0,0,0,0,0,0,0,0,0,0,0,0,0,0,0,0,0,0,0,0,0,0,0,0,0,0,0,0,0,0,0,0,0,0,0,0,0,0,0,0,0,0,0,0,0,0,0,0,0,0,0,0,0,0,0,0,0,0,0,0,0,0,0,0,0,0,0,0,0,0,0,0,0,0,0,0,0,0,0,0,0,0,0,0,0,0,0,0,0,0,0,0,0,0,0,0,0,0,0,0,0,0,0,0,0,0,0,0,0,0,0,0,0,0,0,0,0,0,0,0,0,0,0,0,0,0,0,0,0,0,0,0,0,0,0,0,0,0,0,0,0,0,0,0,0,0,0,0,0,0,0,0,0,0,0,0,0,0,0,0,0,0,0,0,0,0,0,0,0,0,0,0,0,0,0,0],"trees":[{"base_weights":[3.9970642E-1,2.2745615E1,-1.436181E1,2.8694998E1,1.1850615E1,-4.6400337E0,-2.5119265E1,1.4843141E0,9.9144745E-1,1.5329235E1,5.770515E0,-7.7816594E-1,-1.0309951E1,-2.0119112E1,-1.6146691E0,1.8047472E1,5.4203767E-1,7.4126186E0,1.1042047E0,2.284942E0,-4.2650204E0,-3.8016305E0,-1.1329643E1,-8.737492E-1,-1.1194652E0,1.061304E0,7.274637E-1,4.0946075E-1,2.282155E-1,8.989577E-2,8.482651E-3,4.4102926E0,2.9262844E-1,-1.7190586E0,-6.4472537E0,-6.270121E-2,-2.293865E-1,-4.539477E-1,-6.390395E-1,2.8612182E-1,1.14245474E-1,1.1751864E-1,-7.0665784E-2,-4.4737484E-2,-1.3014051E-1,-1.5405686E-1,-3.374001E-1],"categories":[],"categories_nodes":[],"categories_segments":[],"categories_sizes":[],"default_left":[0,0,0,0,0,0,0,0,0,0,0,0,0,0,0,0,0,0,0,0,0,0,0,0,0,0,0,0,0,0,0,0,0,0,0,0,0,0,0,0,0,0,0,0,0,0,0],"id":0,"left_children":[1,3,5,7,9,11,13,-1,-1,15,17,19,21,23,-1,25,-1,27,29,31,33,35,37,-1,-1,-1,-1,-1,-1,-1,-1,39,41,43,45,-1,-1,-1,-1,-1,-1,-1,-1,-1,-1,-1,-1],"loss_changes":[1.7911134E5,1.3656695E4,3.407864E4,6.2803125E2,1.5591611E3,3.7789578E3,4.9051562E3,0E0,0E0,3.9929883E2,2.2084015E2,1.1207269E3,4.1996973E2,1.6901562E2,0E0,1.0061523E1,0E0,1.0010132E1,5.332999E0,2.3536356E2,2.6033838E2,1.5692093E1,7.7742676E1,0E0,0E0,0E0,0E0,0E0,0E0,0E0,0E0,6.1421814E1,1.0872743E2,1.4805E1,4.546875E0,0E0,0E0,0E0,0E0,0E0,0E0,0E0,0E0,0E0,0E0,0E0,0E0],"parents":[2147483647,0,0,1,1,2,2,3,3,4,4,5,5,6,6,9,9,10,10,11,11,12,12,13,13,15,15,17,17,18,18,19,19,20,20,21,21,22,22,31,31,32,32,33,33,34,34],"right_children":[2,4,6,8,10,12,14,-1,-1,16,18,20,22,24,-1,26,-1,28,30,32,34,36,38,-1,-1,-1,-1,-1,-1,-1,-1,40,42,44,46,-1,-1,-1,-1,-1,-1,-1,-1,-1,-1,-1,-1],"split_conditions":[-3.0640435E-1,-6.884878E-1,5.6611556E-1,-6.2341875E-1,-5.0039303E-1,1.6490766E-1,1.2876025E0,1.4843141E0,9.9144745E-1,-2.908395E-1,1.09175764E-1,7.367145E-2,-2.908395E-1,8.499681E-1,-1.6146691E0,-7.38025E-1,5.4203767E-1,-8.018057E-2,7.3907787E-1,-3.3817858E-1,-4.60917E-2,-5.72507E-1,3.3166945E-1,-8.737492E-1,-1.1194652E0,1.061304E0,7.274637E-1,4.0946075E-1,2.282155E-1,8.989577E-2,8.482651E-3,-9.506141E-2,-1.4506206E-1,3.1036687E-1,1.3994616E-1,-6.270121E-2,-2.293865E-1,-4.539477E-1,-6.390395E-1,2.8612182E-1,1.14245474E-1,1.1751864E-1,-7.0665784E-2,-4.4737484E-2,-1.3014051E-1,-1.5405686E-1,-3.374001E-1],"split_indices":[19,17,19,19,19,19,19,0,0,17,17,17,17,19,0,19,0,17,8,17,19,17,17,0,0,0,0,0,0,0,0,19,19,17,17,0,0,0,0,0,0,0,0,0,0,0,0],"split_type":[0,0,0,0,0,0,0,0,0,0,0,0,0,0,0,0,0,0,0,0,0,0,0,0,0,0,0,0,0,0,0,0,0,0,0,0,0,0,0,0,0,0,0,0,0,0,0],"sum_hessian":[5.41E2,2.15E2,3.26E2,1.38E2,7.7E1,1.72E2,1.54E2,1.22E2,1.6E1,4.8E1,2.9E1,1.03E2,6.9E1,9.3E1,6.1E1,2.8E1,2E1,2.1E1,8E0,5.5E1,4.8E1,1E1,5.9E1,4.7E1,4.6E1,1.2E1,1.6E1,1.5E1,6E0,4E0,4E0,2.6E1,2.9E1,2.3E1,2.5E1,3E0,7E0,2.6E1,3.3E1,1.5E1,1.1E1,1.3E1,1.6E1,1.3E1,1E1,3E0,2.2E1],"tree_param":{"num_deleted":"0","num_feature":"24","num_nodes":"47","size_leaf_vector":"1"}},{"base_weights":[8.23176E-2,-1.5099232E1,1.9884417E1,-2.4470274E1,-5.8131495E0,9.278638E0,2.714592E1,-1.9743536E1,-1.539145E0,-9.980802E0,-1.8344226E0,5.712615E0,1.3833579E1,1.0062054E0,1.4198083E0,-1.0563029E0,-8.181562E-1,-6.193E-1,-3.8121167E-1,-3.618509E0,1.8310523E-1,1.7282304E-1,3.5544735E-1,5.351165E-1,7.702743E-1,-2.2422011E-1,-1.2671556E-1,-8.5245836E-1,8.9988405E-1,-5.7594802E-2,-1.982669E-2,2.3343435E-2,7.0305854E-2],"categories":[],"categories_nodes":[],"categories_segments":[],"categories_sizes":[],"default_left":[0,0,0,0,0,0,0,0,0,0,0,0,0,0,0,0,0,0,0,0,0,0,0,0,0,0,0,0,0,0,0,0,0],"id":1,"left_children":[1,3,5,7,9,11,13,15,-1,17,19,21,23,-1,-1,-1,-1,-1,-1,25,27,-1,-1,-1,-1,-1,-1,29,31,-1,-1,-1,-1],"loss_changes":[1.5933216E5,2.5960812E4,1.745768E4,3.8330625E3,2.5009663E3,1.4621069E3,6.176406E2,6.1828125E1,0E0,3.2299805E2,2.8536215E2,1.4764038E2,3.431787E1,0E0,0E0,0E0,0E0,0E0,0E0,2.7362854E1,2.8978117E1,0E0,0E0,0E0,0E0,0E0,0E0,1.5727272E0,4.197983E0,0E0,0E0,0E0,0E0],"parents":[2147483647,0,0,1,1,2,2,3,3,4,4,5,5,6,6,7,7,9,9,10,10,11,11,12,12,19,19,20,20,27,27,28,28],"right_children":[2,4,6,8,10,12,14,16,-1,18,20,22,24,-1,-1,-1,-1,-1,-1,26,28,-1,-1,-1,-1,-1,-1,30,32,-1,-1,-1,-1],"split_conditions":[-8.638015E-2,-6.685622E-1,4.4448233E-1,1.2259179E0,-3.6097887E-1,1.4653258E-1,6.355029E-1,-7.778421E-1,-1.539145E0,-4.9229392E-1,-2.1958514E-1,6.5460457E-3,2.6071635E-1,1.0062054E0,1.4198083E0,-1.0563029E0,-8.181562E-1,-6.193E-1,-3.8121167E-1,-2.7735126E-1,-1.649517E-1,1.7282304E-1,3.5544735E-1,5.351165E-1,7.702743E-1,-2.2422011E-1,-1.2671556E-1,-1.8864393E-1,-1.3014299E-1,-5.7594802E-2,-1.982669E-2,2.3343435E-2,7.0305854E-2],"split_indices":[20,20,20,19,20,20,20,20,0,20,20,20,20,0,0,0,0,0,0,20,20,0,0,0,0,0,0,20,20,0,0,0,0],"split_type":[0,0,0,0,0,0,0,0,0,0,0,0,0,0,0,0,0,0,0,0,0,0,0,0,0,0,0,0,0,0,0,0,0],"sum_hessian":[5.28E2,2.99E2,2.29E2,1.48E2,1.51E2,9.4E1,1.35E2,8.7E1,6.1E1,7.3E1,7.8E1,5.4E1,4E1,2.3E1,1.12E2,5.8E1,2.9E1,3.4E1,3.9E1,4.1E1,3.7E1,2.2E1,3.2E1,1.6E1,2.4E1,2.1E1,2E1,1.5E1,2.2E1,8E0,7E0,1.3E1,9E0],"tree_param":{"num_deleted":"0","num_feature":"24","num_nodes":"33","size_leaf_vector":"1"}},{"base_weights":[7.356376E-2,-1.4208795E1,1.9323814E1,-2.3008116E1,-5.7068734E0,9.451928E0,2.6199942E1,-1.4543823E0,-1.8495687E1,-9.431907E0,-1.6161638E0,5.807626E0,1.3450857E1,9.9769604E-1,1.3587307E0,-1.0230373E0,-7.9870087E-1,-5.6622225E-1,-3.4450504E-1,-3.540413E0,3.4696135E-1,4.033401E0,3.6486688E-1,5.309951E-1,7.470564E-1,-2.2654001E-1,-1.2823114E-1,-6.5860933E-1,1.340184E0,1.3328336E-1,2.2438172E-1,-4.664072E-2,-9.132385E-5,3.1697646E-2,9.2564315E-2],"categories":[],"categories_nodes":[],"categories_segments":[],"categories_sizes":[],"default_left":[0,0,0,0,0,0,0,0,0,0,0,0,0,0,0,0,0,0,0,0,0,0,0,0,0,0,0,0,0,0,0,0,0,0,0],"id":2,"left_children":[1,3,5,7,9,11,13,-1,15,17,19,21,23,-1,-1,-1,-1,-1,-1,25,27,29,-1,-1,-1,-1,-1,31,33,-1,-1,-1,-1,-1,-1],"loss_changes":[1.4846717E5,2.3057273E4,1.5361281E4,3.6271328E3,2.406499E3,1.3189941E3,2.7489844E2,0E0,1.1548633E2,3.194204E2,2.9241852E2,1.0687427E2,2.8620605E1,0E0,0E0,0E0,0E0,0E0,0E0,2.5360626E1,3.990228E1,3.4751587E0,0E0,0E0,0E0,0E0,0E0,3.5066957E0,5.796974E0,0E0,0E0,0E0,0E0,0E0,0E0],"parents":[2147483647,0,0,1,1,2,2,3,3,4,4,5,5,6,6,8,8,9,9,10,10,11,11,12,12,19,19,20,20,21,21,27,27,28,28],"right_children":[2,4,6,8,10,12,14,-1,16,18,20,22,24,-1,-1,-1,-1,-1,-1,26,28,30,-1,-1,-1,-1,-1,32,34,-1,-1,-1,-1,-1,-1],"split_conditions":[-7.4611016E-2,-6.5992373E-1,4.7227758E-1,-9.881809E-1,-3.6097887E-1,1.7687699E-1,6.691215E-1,-1.4543823E0,-8.014882E-1,-4.826134E-1,-2.1958514E-1,4.3128356E-2,2.931458E-1,9.9769604E-1,1.3587307E0,-1.0230373E0,-7.9870087E-1,-5.6622225E-1,-3.4450504E-1,-2.876109E-1,-1.5507579E-1,-3.2459162E-2,3.6486688E-1,5.309951E-1,7.470564E-1,-2.2654001E-1,-1.2823114E-1,-1.792237E-1,-1.20497465E-1,1.3328336E-1,2.2438172E-1,-4.664072E-2,-9.132385E-5,3.1697646E-2,9.2564315E-2],"split_indices":[20,20,20,20,20,20,20,0,20,20,20,20,20,0,0,0,0,0,0,20,20,20,0,0,0,0,0,20,20,0,0,0,0,0,0],"split_type":[0,0,0,0,0,0,0,0,0,0,0,0,0,0,0,0,0,0,0,0,0,0,0,0,0,0,0,0,0,0,0,0,0,0,0],"sum_hessian":[5.38E2,3.09E2,2.29E2,1.51E2,1.58E2,9.5E1,1.34E2,6.2E1,8.9E1,8.2E1,7.6E1,5.1E1,4.4E1,2.1E1,1.13E2,4.6E1,4.3E1,4.5E1,3.7E1,3.8E1,3.8E1,2.5E1,2.6E1,1.8E1,2.6E1,1.7E1,2.1E1,1.9E1,1.9E1,8E0,1.7E1,1.3E1,6E0,9E0,1E1],"tree_param":{"num_deleted":"0","num_feature":"24","num_nodes":"35","size_leaf_vector":"1"}},{"base_weights":[7.008454E-2,-1.3704446E1,1.7886026E1,-2.2484333E1,-5.992137E0,8.368275E0,2.4643648E1,-1.859387E1,-1.4479139E0,-9.548121E0,-2.2342231E0,4.825047E0,1.2100235E1,9.0109015E-1,1.2857785E0,-1.054453E0,-8.085522E-1,-5.807697E-1,-3.702132E-1,-4.0366073E0,-2.869856E-1,3.1753032E0,3.1767416E-1,4.9441385E-1,6.912092E-1,-2.4056588E-1,-1.3997677E-1,-1.1556665E0,7.744168E-1,1.1523654E-1,1.8389685E-1,-7.622247E-2,-2.5690187E-2,1.8132845E-2,5.9026074E-2],"categories":[],"categories_nodes":[],"categories_segments":[],"categories_sizes":[],"default_left":[0,0,0,0,0,0,0,0,0,0,0,0,0,0,0,0,0,0,0,0,0,0,0,0,0,0,0,0,0,0,0,0,0,0,0],"id":3,"left_children":[1,3,5,7,9,11,13,15,-1,17,19,21,23,-1,-1,-1,-1,-1,-1,25,27,29,-1,-1,-1,-1,-1,31,33,-1,-1,-1,-1,-1,-1],"loss_changes":[1.362006E5,2.1056652E4,1.5355281E4,3.1340469E3,2.2224873E3,1.2886885E3,5.330156E2,2.2351172E2,0E0,2.932412E2,2.8971176E2,1.150354E2,4.7782715E1,0E0,0E0,0E0,0E0,0E0,0E0,2.6979492E1,3.8735912E1,3.1772766E0,0E0,0E0,0E0,0E0,0E0,4.4571934E0,2.5946922E0,0E0,0E0,0E0,0E0,0E0,0E0],"parents":[2147483647,0,0,1,1,2,2,3,3,4,4,5,5,6,6,7,7,9,9,10,10,11,11,12,12,19,19,20,20,21,21,27,27,28,28],"right_children":[2,4,6,8,10,12,14,16,-1,18,20,22,24,-1,-1,-1,-1,-1,-1,26,28,30,-1,-1,-1,-1,-1,32,34,-1,-1,-1,-1,-1,-1],"split_conditions":[-8.638015E-2,-6.929398E-1,4.4448233E-1,1.3839955E0,-3.8298878E-1,1.3662477E-1,6.355029E-1,-8.591476E-1,-1.4479139E0,-5.2363944E-1,-2.3929378E-1,1.891597E-2,2.6071635E-1,9.0109015E-1,1.2857785E0,-1.054453E0,-8.085522E-1,-5.807697E-1,-3.702132E-1,-3.0262744E-1,-1.649517E-1,-5.1807135E-2,3.1767416E-1,4.9441385E-1,6.912092E-1,-2.4056588E-1,-1.3997677E-1,-2.0917886E-1,-1.3014299E-1,1.1523654E-1,1.8389685E-1,-7.622247E-2,-2.5690187E-2,1.8132845E-2,5.9026074E-2],"split_indices":[20,20,20,19,20,20,20,20,0,20,20,20,20,0,0,0,0,0,0,20,20,20,0,0,0,0,0,20,20,0,0,0,0,0,0],"split_type":[0,0,0,0,0,0,0,0,0,0,0,0,0,0,0,0,0,0,0,0,0,0,0,0,0,0,0,0,0,0,0,0,0,0,0],"sum_hessian":[5.53E2,3.12E2,2.41E2,1.45E2,1.67E2,1.01E2,1.4E2,9.3E1,5.2E1,8.5E1,8.2E1,5.3E1,4.8E1,2.2E1,1.18E2,4.2E1,5.1E1,4.1E1,4.4E1,4.2E1,4E1,2.7E1,2.6E1,2.4E1,2.4E1,2.4E1,1.8E1,2.2E1,1.8E1,1.2E1,1.5E1,1.3E1,9E0,1E1,8E0],"tree_param":{"num_deleted":"0","num_feature":"24","num_nodes":"35","size_leaf_vector":"1"}},{"base_weights":[-4.3774244E-1,-1.3261377E1,1.703039E1,-2.1854736E1,-5.846222E0,7.999334E0,2.3459373E1,-1.8362942E1,-1.4299585E0,-9.804155E0,-2.2578828E0,4.8819237E0,1.1712021E1,9.238712E-1,1.235293E0,-1.0274965E0,-7.8549486E-1,-5.8974093E-1,-3.7859637E-1,-4.1035876E0,-9.980345E-2,2.956603E0,3.1369475E-1,4.521175E-1,6.52716E-1,-2.4192421E-1,-1.3955317E-1,-1.0721998E0,7.880282E-1,1.09024934E-1,1.7017533E-1,-6.9324225E-2,-2.4399431E-2,1.7819326E-2,6.0871013E-2],"categories":[],"categories_nodes":[],"categories_segments":[],"categories_sizes":[],"default_left":[0,0,0,0,0,0,0,0,0,0,0,0,0,0,0,0,0,0,0,0,0,0,0,0,0,0,0,0,0,0,0,0,0,0,0],"id":4,"left_children":[1,3,5,7,9,11,13,15,-1,17,19,21,23,-1,-1,-1,-1,-1,-1,25,27,29,-1,-1,-1,-1,-1,31,33,-1,-1,-1,-1,-1,-1],"loss_changes":[1.2275618E5,2.0005328E4,1.3279234E4,2.908461E3,2.405268E3,1.0754121E3,3.7752344E2,2.4795312E2,0E0,2.6868652E2,3.6163925E2,1.27927E2,3.7421875E1,0E0,0E0,0E0,0E0,0E0,0E0,3.299646E1,3.799628E1,6.913452E-1,0E0,0E0,0E0,0E0,0E0,2.991745E0,3.67165E0,0E0,0E0,0E0,0E0,0E0,0E0],"parents":[2147483647,0,0,1,1,2,2,3,3,4,4,5,5,6,6,7,7,9,9,10,10,11,11,12,12,19,19,20,20,21,21,27,27,28,28],"right_children":[2,4,6,8,10,12,14,16,-1,18,20,22,24,-1,-1,-1,-1,-1,-1,26,28,30,-1,-1,-1,-1,-1,32,34,-1,-1,-1,-1,-1,-1],"split_conditions":[-8.638015E-2,-7.0409E-1,4.4448233E-1,1.4987736E0,-3.9972332E-1,1.4653258E-1,6.9898564E-1,-8.7289476E-1,-1.4299585E0,-5.4102975E-1,-2.3929378E-1,6.5460457E-3,2.4977796E-1,9.238712E-1,1.235293E0,-1.0274965E0,-7.8549486E-1,-5.8974093E-1,-3.7859637E-1,-3.1189615E-1,-1.649517E-1,-5.1807135E-2,3.1369475E-1,4.521175E-1,6.52716E-1,-2.4192421E-1,-1.3955317E-1,-2.0437251E-1,-1.3014299E-1,1.09024934E-1,1.7017533E-1,-6.9324225E-2,-2.4399431E-2,1.7819326E-2,6.0871013E-2],"split_indices":[20,20,20,19,20,20,20,20,0,20,20,20,20,0,0,0,0,0,0,20,20,20,0,0,0,0,0,20,20,0,0,0,0,0,0],"split_type":[0,0,0,0,0,0,0,0,0,0,0,0,0,0,0,0,0,0,0,0,0,0,0,0,0,0,0,0,0,0,0,0,0,0,0],"sum_hessian":[5.46E2,3.15E2,2.31E2,1.45E2,1.7E2,9.7E1,1.34E2,9.8E1,4.7E1,8E1,9E1,5.4E1,4.3E1,3E1,1.04E2,5E1,4.8E1,4E1,4E1,4.8E1,4.2E1,2.4E1,3E1,1.7E1,2.6E1,2.9E1,1.9E1,2E1,2.2E1,1.1E1,1.3E1,1.2E1,8E0,1.2E1,1E1],"tree_param":{"num_deleted":"0","num_feature":"24","num_nodes":"35","size_leaf_vector":"1"}},{"base_weights":[2.8367656E-1,-1.2039299E1,1.6905804E1,-1.9645031E1,-4.16247E0,8.863333E0,2.2694342E1,-1.3149599E0,-1.6319925E1,-7.254497E0,-6.837934E-1,5.6455917E0,1.2229519E1,8.906317E-1,1.1764722E0,-9.2505187E-1,-6.9003075E-1,-4.5811245E-1,-2.798086E-1,-2.157394E0,8.051701E-1,2.0711866E-1,3.521729E-1,4.8991728E-1,6.876914E-1,-1.4192359E-1,-1.3975005E0,1.2326551E-1,1.5504383E0,-7.531056E-2,-3.750632E-2,-1.0469162E-2,1.99267E-2,4.6788637E-2,9.23714E-2],"categories":[],"categories_nodes":[],"categories_segments":[],"categories_sizes":[],"default_left":[0,0,0,0,0,0,0,0,0,0,0,0,0,0,0,0,0,0,0,0,0,0,0,0,0,0,0,0,0,0,0,0,0,0,0],"id":5,"left_children":[1,3,5,7,9,11,13,-1,15,17,19,21,23,-1,-1,-1,-1,-1,-1,25,27,-1,-1,-1,-1,-1,29,31,33,-1,-1,-1,-1,-1,-1],"loss_changes":[1.1306759E5,1.890702E4,1.0735922E4,3.128789E3,1.6829631E3,1.0123218E3,1.3117969E2,0E0,3.4588086E2,2.0983545E2,1.664326E2,8.107373E1,4.076123E1,0E0,0E0,0E0,0E0,0E0,0E0,1.5276413E1,1.895318E1,0E0,0E0,0E0,0E0,0E0,5.2043915E-2,2.0252838E0,1.2787933E0,0E0,0E0,0E0,0E0,0E0,0E0],"parents":[2147483647,0,0,1,1,2,2,3,3,4,4,5,5,6,6,8,8,9,9,10,10,11,11,12,12,19,19,20,20,26,26,27,27,28,28],"right_children":[2,4,6,8,10,12,14,-1,16,18,20,22,24,-1,-1,-1,-1,-1,-1,26,28,-1,-1,-1,-1,-1,30,32,34,-1,-1,-1,-1,-1,-1],"split_conditions":[-6.5828145E-2,-6.2890786E-1,4.957813E-1,-1.0465924E0,-3.2727048E-1,1.9796886E-1,6.9898564E-1,-1.3149599E0,-8.2723075E-1,-4.5587647E-1,-1.8864393E-1,6.982389E-2,3.396419E-1,8.906317E-1,1.1764722E0,-9.2505187E-1,-6.9003075E-1,-4.5811245E-1,-2.798086E-1,-2.5554186E-1,-1.3014299E-1,2.0711866E-1,3.521729E-1,4.8991728E-1,6.876914E-1,-1.4192359E-1,-2.0917886E-1,-1.5900666E-1,-1.03054225E-1,-7.531056E-2,-3.750632E-2,-1.0469162E-2,1.99267E-2,4.6788637E-2,9.23714E-2],"split_indices":[20,20,20,20,20,20,20,0,20,20,20,20,20,0,0,0,0,0,0,20,20,0,0,0,0,0,20,20,20,0,0,0,0,0,0],"split_type":[0,0,0,0,0,0,0,0,0,0,0,0,0,0,0,0,0,0,0,0,0,0,0,0,0,0,0,0,0,0,0,0,0,0,0],"sum_hessian":[5.5E2,3.16E2,2.34E2,1.6E2,1.56E2,9.9E1,1.35E2,5.1E1,1.09E2,8.2E1,7.4E1,5.2E1,4.7E1,2.3E1,1.12E2,5.5E1,5.4E1,3.6E1,4.6E1,3.7E1,3.7E1,2.7E1,2.5E1,2.1E1,2.6E1,1.8E1,1.9E1,2E1,1.7E1,1.5E1,4E0,9E0,1.1E1,7E0,1E1],"tree_param":{"num_deleted":"0","num_feature":"24","num_nodes":"35","size_leaf_vector":"1"}},{"base_weights":[9.532391E-2,-1.1916517E1,1.5333506E1,-1.9213905E1,-4.9125643E0,7.0882854E0,2.1188677E1,-1.6517569E1,-1.2988453E0,-8.50801E0,-1.642671E0,4.350006E0,1.0596699E1,7.640778E-1,1.101897E0,-9.335949E-1,-7.0925456E-1,-4.951267E-1,-3.2150275E-1,-3.2795186E0,-7.782048E-2,2.9187143E0,2.86328E-1,4.341025E-1,5.981514E-1,-1.9700554E-1,-1.10548906E-1,-8.8276494E-1,6.9116205E-1,9.885764E-2,1.7020303E-1,-5.6407012E-2,-1.4992038E-2,1.5193464E-2,5.384739E-2],"categories":[],"categories_nodes":[],"categories_segments":[],"categories_sizes":[],"default_left":[0,0,0,0,0,0,0,0,0,0,0,0,0,0,0,0,0,0,0,0,0,0,0,0,0,0,0,0,0,0,0,0,0,0,0],"id":6,"left_children":[1,3,5,7,9,11,13,15,-1,17,19,21,23,-1,-1,-1,-1,-1,-1,25,27,29,-1,-1,-1,-1,-1,31,33,-1,-1,-1,-1,-1,-1],"loss_changes":[1.00488234E5,1.5594141E4,1.1530051E4,2.3019727E3,1.8425715E3,9.323252E2,3.6684766E2,2.8459375E2,0E0,1.520249E2,2.145685E2,9.8666016E1,9.177734E0,0E0,0E0,0E0,0E0,0E0,0E0,1.9614075E1,2.7864775E1,6.898041E0,0E0,0E0,0E0,0E0,0E0,2.6657143E0,2.9711437E0,0E0,0E0,0E0,0E0,0E0,0E0],"parents":[2147483647,0,0,1,1,2,2,3,3,4,4,5,5,6,6,7,7,9,9,10,10,11,11,12,12,19,19,20,20,21,21,27,27,28,28],"right_children":[2,4,6,8,10,12,14,16,-1,18,20,22,24,-1,-1,-1,-1,-1,-1,26,28,30,-1,-1,-1,-1,-1,32,34,-1,-1,-1,-1,-1,-1],"split_conditions":[-8.638015E-2,-6.8137026E-1,4.4448233E-1,1.5278119E0,-3.8298878E-1,1.4653258E-1,6.2346524E-1,-8.768159E-1,-1.2988453E0,-5.097757E-1,-2.3442493E-1,2.7360342E-2,2.931458E-1,7.640778E-1,1.101897E0,-9.335949E-1,-7.0925456E-1,-4.951267E-1,-3.2150275E-1,-2.876109E-1,-1.649517E-1,-5.1807135E-2,2.86328E-1,4.341025E-1,5.981514E-1,-1.9700554E-1,-1.10548906E-1,-1.8864393E-1,-1.3014299E-1,9.885764E-2,1.7020303E-1,-5.6407012E-2,-1.4992038E-2,1.5193464E-2,5.384739E-2],"split_indices":[20,20,20,19,20,20,20,20,0,20,20,20,20,0,0,0,0,0,0,20,20,20,0,0,0,0,0,20,20,0,0,0,0,0,0],"split_type":[0,0,0,0,0,0,0,0,0,0,0,0,0,0,0,0,0,0,0,0,0,0,0,0,0,0,0,0,0,0,0,0,0,0,0],"sum_hessian":[5.47E2,3.06E2,2.41E2,1.49E2,1.57E2,1.01E2,1.4E2,1.09E2,4E1,7.4E1,8.3E1,5.8E1,4.3E1,2E1,1.2E2,5.3E1,5.6E1,4.2E1,3.2E1,4E1,4.3E1,3E1,2.8E1,2.1E1,2.2E1,2.3E1,1.7E1,2.1E1,2.2E1,1.2E1,1.8E1,1.4E1,7E0,1.2E1,1E1],"tree_param":{"num_deleted":"0","num_feature":"24","num_nodes":"35","size_leaf_vector":"1"}},{"base_weights":[6.0453314E-1,-1.0690569E1,1.5439182E1,-1.740227E1,-3.5987864E0,7.7341895E0,2.0395336E1,-2.2854115E1,-1.3774549E1,-6.5478477E0,-4.8244566E-1,5.014049E0,5.420736E-1,8.1426734E-1,1.0670742E0,-9.72713E-1,-1.291441E0,-7.6055366E-1,-5.7019943E-1,-4.0651533E-1,-2.4595182E-1,-2.0250902E0,8.4377396E-1,3.739044E0,3.1707975E-1,-1.24645434E-1,-5.6907732E-2,1.3968176E-1,8.650659E-2,1.2183026E-1,2.019078E-1,-1.1118241E-2,2.1065624E-2],"categories":[],"categories_nodes":[],"categories_segments":[],"categories_sizes":[],"default_left":[0,0,0,0,0,0,0,0,0,0,0,0,0,0,0,0,0,0,0,0,0,0,0,0,0,0,0,0,0,0,0,0,0],"id":7,"left_children":[1,3,5,7,9,11,13,15,17,19,21,23,-1,-1,-1,-1,-1,-1,-1,-1,-1,25,27,29,-1,-1,-1,31,-1,-1,-1,-1,-1],"loss_changes":[9.148511E4,1.4690633E4,8.851613E3,2.8261992E3,1.3930604E3,7.385654E2,2.047539E2,1.200332E2,1.5759766E2,1.5974902E2,1.5526826E2,6.329712E1,0E0,0E0,0E0,0E0,0E0,0E0,0E0,0E0,0E0,1.1321945E1,2.5158533E1,8.1082153E-1,0E0,0E0,0E0,2.5607026E0,0E0,0E0,0E0,0E0,0E0],"parents":[2147483647,0,0,1,1,2,2,3,3,4,4,5,5,6,6,7,7,8,8,9,9,10,10,11,11,21,21,22,22,23,23,27,27],"right_children":[2,4,6,8,10,12,14,16,18,20,22,24,-1,-1,-1,-1,-1,-1,-1,-1,-1,26,28,30,-1,-1,-1,32,-1,-1,-1,-1,-1],"split_conditions":[-5.1807135E-2,-6.1735004E-1,4.8073748E-1,-9.7022325E-1,-3.2727048E-1,1.9796886E-1,7.1394265E-1,1.7407012E0,-7.5701296E-1,-4.518734E-1,-1.8864393E-1,6.982389E-2,5.420736E-1,8.1426734E-1,1.0670742E0,-9.72713E-1,-1.291441E0,-7.6055366E-1,-5.7019943E-1,-4.0651533E-1,-2.4595182E-1,-2.3929378E-1,-1.20497465E-1,-1.9244535E-2,3.1707975E-1,-1.24645434E-1,-5.6907732E-2,-1.5900666E-1,8.650659E-2,1.2183026E-1,2.019078E-1,-1.1118241E-2,2.1065624E-2],"split_indices":[20,20,20,20,20,20,20,19,20,20,20,20,0,0,0,0,0,0,0,0,0,20,20,20,0,0,0,20,0,0,0,0,0],"split_type":[0,0,0,0,0,0,0,0,0,0,0,0,0,0,0,0,0,0,0,0,0,0,0,0,0,0,0,0,0,0,0,0,0],"sum_hessian":[5.44E2,3.09E2,2.35E2,1.58E2,1.51E2,9.3E1,1.42E2,6.1E1,9.7E1,7.7E1,7.4E1,5.1E1,4.2E1,3E1,1.12E2,3.2E1,2.9E1,5.7E1,4E1,3.7E1,4E1,3.4E1,4E1,2.8E1,2.3E1,2.1E1,1.3E1,2.3E1,1.7E1,7E0,2.1E1,1E1,1.3E1],"tree_param":{"num_deleted":"0","num_feature":"24","num_nodes":"33","size_leaf_vector":"1"}},{"base_weights":[1.9273606E-1,1.478013E1,-9.878724E0,1.912301E1,8.269327E0,-3.289363E0,-1.7269457E1,9.746351E-1,4.834786E-1,1.0760885E1,3.561108E0,6.75142E-1,-5.952722E0,-1.4490393E1,-1.1583785E0,7.7000964E-1,9.112816E0,4.8985133E0,4.318874E-1,3.1134007E0,-9.259368E-1,-4.1795583E0,-8.426137E0,-6.1647195E-1,-8.247716E-1,5.1403135E-1,3.1371906E-1,2.722868E-1,1.4277354E-1,6.19541E-2,-1.9209267E-1,4.100407E0,1.8263652E0,-1.9565971E-1,-2.5884485E0,7.038801E-2,-4.5908866E0,-3.1015503E-1,-4.5526242E-1,1.2535172E-2,-3.0593282E-2,2.4634777E-1,1.2188224E-1,1.1316993E-1,2.8351272E-2,2.100621E-2,-4.435854E-2,-1.5583105E-1,-5.500243E-2,-1.8099305E-1,-3.0053768E-1],"categories":[],"categories_nodes":[],"categories_segments":[],"categories_sizes":[],"default_left":[0,0,0,0,0,0,0,0,0,0,0,0,0,0,0,0,0,0,0,0,0,0,0,0,0,0,0,0,0,0,0,0,0,0,0,0,0,0,0,0,0,0,0,0,0,0,0,0,0,0,0],"id":8,"left_children":[1,3,5,7,9,11,13,-1,-1,15,17,19,21,23,-1,-1,25,27,29,31,33,35,37,-1,-1,-1,-1,-1,-1,-1,39,41,43,45,47,-1,49,-1,-1,-1,-1,-1,-1,-1,-1,-1,-1,-1,-1,-1,-1],"loss_changes":[8.021592E4,6.1445938E3,1.5671307E4,2.7341406E2,1.02775E3,1.8206776E3,2.1519922E3,0E0,0E0,3.0831738E2,1.3545755E2,2.7637067E2,4.152561E2,2.5301367E2,0E0,0E0,8.631885E1,9.333679E0,5.8831244E0,2.7487244E1,5.142119E1,1.49271E2,5.395508E0,0E0,0E0,0E0,0E0,0E0,0E0,0E0,1.4906298E0,7.8686523E0,6.1387787E0,1.361989E1,6.3696213E0,0E0,5.7244995E1,0E0,0E0,0E0,0E0,0E0,0E0,0E0,0E0,0E0,0E0,0E0,0E0,0E0,0E0],"parents":[2147483647,0,0,1,1,2,2,3,3,4,4,5,5,6,6,9,9,10,10,11,11,12,12,13,13,16,16,17,17,18,18,19,19,20,20,21,21,22,22,30,30,31,31,32,32,33,33,34,34,36,36],"right_children":[2,4,6,8,10,12,14,-1,-1,16,18,20,22,24,-1,-1,26,28,30,32,34,36,38,-1,-1,-1,-1,-1,-1,-1,40,42,44,46,48,-1,50,-1,-1,-1,-1,-1,-1,-1,-1,-1,-1,-1,-1,-1,-1],"split_conditions":[-2.7152413E-1,-6.884878E-1,5.913736E-1,-4.333819E-1,-5.0039303E-1,3.5009086E-2,1.4226558E0,9.746351E-1,4.834786E-1,-9.074429E-1,1.09175764E-1,-2.600691E-1,3.4807152E-1,9.551241E-1,-1.1583785E0,7.7000964E-1,-2.1273E-1,-8.018057E-2,7.3907787E-1,-5.464705E-1,3.1036687E-1,-6.979556E-1,1.2337749E-1,-6.1647195E-1,-8.247716E-1,5.1403135E-1,3.1371906E-1,2.722868E-1,1.4277354E-1,6.19541E-2,-2.2792972E-3,-1.15508325E-1,-6.482042E-2,-1.5159126E-1,1.0006114E0,7.038801E-2,4.7842062E-1,-3.1015503E-1,-4.5526242E-1,1.2535172E-2,-3.0593282E-2,2.4634777E-1,1.2188224E-1,1.1316993E-1,2.8351272E-2,2.100621E-2,-4.435854E-2,-1.5583105E-1,-5.500243E-2,-1.8099305E-1,-3.0053768E-1],"split_indices":[19,17,19,19,19,19,19,0,0,19,17,17,19,19,0,0,17,17,8,17,17,17,17,0,0,0,0,0,0,0,22,19,19,19,22,0,17,0,0,0,0,0,0,0,0,0,0,0,0,0,0],"split_type":[0,0,0,0,0,0,0,0,0,0,0,0,0,0,0,0,0,0,0,0,0,0,0,0,0,0,0,0,0,0,0,0,0,0,0,0,0,0,0,0,0,0,0,0,0,0,0,0,0,0,0],"sum_hessian":[5.44E2,2.22E2,3.22E2,1.32E2,9E1,1.71E2,1.51E2,1.26E2,6E0,5.8E1,3.2E1,6.9E1,1.02E2,1.05E2,4.6E1,1.3E1,4.5E1,2.2E1,1E1,2.7E1,4.2E1,6.1E1,4.1E1,5.4E1,5.1E1,3E1,1.5E1,1.6E1,6E0,4E0,6E0,1.4E1,1.3E1,3E1,1.2E1,4E0,5.7E1,1.2E1,2.9E1,3E0,3E0,8E0,6E0,9E0,4E0,1.6E1,1.4E1,8E0,4E0,3.6E1,2.1E1],"tree_param":{"num_deleted":"0","num_feature":"24","num_nodes":"51","size_leaf_vector":"1"}},{"base_weights":[3.711798E-1,-9.557283E0,1.3822859E1,-1.5726038E1,-3.2475367E0,7.393741E0,1.8673378E1,-1.9789944E1,-1.2267364E1,-6.018588E0,-3.9804173E-1,4.87739E0,1.0178966E1,7.420266E-1,9.6346396E-1,-8.564415E-1,-1.1426252E0,-6.7180604E-1,-5.2259225E-1,-3.6645243E-1,-2.1234766E-1,-1.8337622E0,7.507823E-1,1.784151E-1,3.0495498E-1,4.0096852E-1,5.6197137E-1,-1.0782613E-1,-9.244196E-1,2.449591E-1,7.669284E-2,-2.1750908E-2,-5.2053392E-2,-5.860068E-3,2.4603738E-2],"categories":[],"categories_nodes":[],"categories_segments":[],"categories_sizes":[],"default_left":[0,0,0,0,0,0,0,0,0,0,0,0,0,0,0,0,0,0,0,0,0,0,0,0,0,0,0,0,0,0,0,0,0,0,0],"id":9,"left_children":[1,3,5,7,9,11,13,15,17,19,21,23,25,-1,-1,-1,-1,-1,-1,-1,-1,27,29,-1,-1,-1,-1,-1,31,33,-1,-1,-1,-1,-1],"loss_changes":[7.2652625E4,1.2130018E4,7.062961E3,1.9748281E3,1.228754E3,6.567163E2,9.824219E0,1.8320312E2,4.3905273E1,1.511272E2,1.3013748E2,6.5232666E1,1.5579102E1,0E0,0E0,0E0,0E0,0E0,0E0,0E0,0E0,7.9708633E0,1.6874666E1,0E0,0E0,0E0,0E0,0E0,2.747345E-2,2.601034E0,0E0,0E0,0E0,0E0,0E0],"parents":[2147483647,0,0,1,1,2,2,3,3,4,4,5,5,6,6,7,7,8,8,9,9,10,10,11,11,12,12,21,21,22,22,28,28,29,29],"right_children":[2,4,6,8,10,12,14,16,18,20,22,24,26,-1,-1,-1,-1,-1,-1,-1,-1,28,30,-1,-1,-1,-1,-1,32,34,-1,-1,-1,-1,-1],"split_conditions":[-5.1807135E-2,-6.2890786E-1,5.3549564E-1,-9.460408E-1,-3.2727048E-1,2.2528005E-1,6.9898564E-1,1.6788447E0,-7.5701296E-1,-4.518734E-1,-1.8864393E-1,9.257793E-2,3.396419E-1,7.420266E-1,9.6346396E-1,-8.564415E-1,-1.1426252E0,-6.7180604E-1,-5.2259225E-1,-3.6645243E-1,-2.1234766E-1,-2.3442493E-1,-1.20497465E-1,1.784151E-1,3.0495498E-1,4.0096852E-1,5.6197137E-1,-1.0782613E-1,-2.2794631E-1,-1.5507579E-1,7.669284E-2,-2.1750908E-2,-5.2053392E-2,-5.860068E-3,2.4603738E-2],"split_indices":[20,20,20,20,20,20,20,19,20,20,20,20,20,0,0,0,0,0,0,0,0,20,20,0,0,0,0,0,8,20,0,0,0,0,0],"split_type":[0,0,0,0,0,0,0,0,0,0,0,0,0,0,0,0,0,0,0,0,0,0,0,0,0,0,0,0,0,0,0,0,0,0,0],"sum_hessian":[5.42E2,3.12E2,2.3E2,1.57E2,1.55E2,1E2,1.3E2,7E1,8.7E1,7.8E1,7.7E1,5.4E1,4.6E1,2.1E1,1.09E2,4.1E1,2.9E1,4.9E1,3.8E1,4.3E1,3.5E1,3.4E1,4.3E1,2.8E1,2.6E1,1.8E1,2.8E1,2.4E1,1E1,2.7E1,1.6E1,3E0,7E0,1.1E1,1.6E1],"tree_param":{"num_deleted":"0","num_feature":"24","num_nodes":"35","size_leaf_vector":"1"}},{"base_weights":[-5.246448E-1,-9.319318E0,1.2826308E1,-1.5709611E1,-3.6848352E0,6.7974076E0,1.76327E1,-1.312774E1,-1.0536767E0,-6.2443857E0,-7.5389034E-1,3.9527662E0,9.506806E0,7.0032823E-1,9.180954E-1,-7.439161E-1,-5.552412E-1,-3.9027426E-1,-4.6813264E0,-1.9061219E0,4.9621233E-1,2.715409E0,2.517124E-1,3.682249E-1,5.324075E-1,-2.6368853E-1,-1.9251166E-1,-1.231668E-1,-6.0353227E-2,4.311189E-2,1.1541182E0,8.527502E-2,1.4962272E-1,-1.6008599E-2,1.3007732E-2,3.0084062E-2,6.350616E-2],"categories":[],"categories_nodes":[],"categories_segments":[],"categories_sizes":[],"default_left":[0,0,0,0,0,0,0,0,0,0,0,0,0,0,0,0,0,0,0,0,0,0,0,0,0,0,0,0,0,0,0,0,0,0,0,0,0],"id":10,"left_children":[1,3,5,7,9,11,13,15,-1,17,19,21,23,-1,-1,-1,-1,-1,25,27,29,31,-1,-1,-1,-1,-1,-1,-1,33,35,-1,-1,-1,-1,-1,-1],"loss_changes":[6.62251E4,1.2182211E4,6.3686094E3,1.921918E3,1.3599387E3,7.3950977E2,6.745703E1,2.217207E2,0E0,1.9890039E2,1.2496189E2,5.3802185E1,4.4480957E1,0E0,0E0,0E0,0E0,0E0,3.8935547E0,1.4188171E1,1.2350613E1,1.7011261E0,0E0,0E0,0E0,0E0,0E0,0E0,0E0,2.1273437E0,1.3806343E-1,0E0,0E0,0E0,0E0,0E0,0E0],"parents":[2147483647,0,0,1,1,2,2,3,3,4,4,5,5,6,6,7,7,9,9,10,10,11,11,12,12,18,18,19,19,20,20,21,21,29,29,30,30],"right_children":[2,4,6,8,10,12,14,16,-1,18,20,22,24,-1,-1,-1,-1,-1,26,28,30,32,-1,-1,-1,-1,-1,-1,-1,34,36,-1,-1,-1,-1,-1,-1],"split_conditions":[-7.4611016E-2,-6.685622E-1,4.957813E-1,1.4987736E0,-3.502753E-1,1.8781292E-1,7.1394265E-1,-8.4289217E-1,-1.0536767E0,-4.9229392E-1,-2.0437251E-1,5.3386632E-2,3.0650488E-1,7.0032823E-1,9.180954E-1,-7.439161E-1,-5.552412E-1,-3.9027426E-1,-4.0648404E-1,-2.5642487E-1,-1.3014299E-1,-3.2459162E-2,2.517124E-1,3.682249E-1,5.324075E-1,-2.6368853E-1,-1.9251166E-1,-1.231668E-1,-6.0353227E-2,-1.649517E-1,-1.20497465E-1,8.527502E-2,1.4962272E-1,-1.6008599E-2,1.3007732E-2,3.0084062E-2,6.350616E-2],"split_indices":[20,20,20,19,20,20,20,20,0,20,20,20,20,0,0,0,0,0,20,20,20,20,0,0,0,0,0,0,0,20,20,0,0,0,0,0,0],"split_type":[0,0,0,0,0,0,0,0,0,0,0,0,0,0,0,0,0,0,0,0,0,0,0,0,0,0,0,0,0,0,0,0,0,0,0,0,0],"sum_hessian":[5.62E2,3.39E2,2.23E2,1.58E2,1.81E2,1E2,1.23E2,1.09E2,4.9E1,9.6E1,8.5E1,5E1,5E1,2.4E1,9.9E1,5.5E1,5.4E1,4.6E1,5E1,4.4E1,4.1E1,2.5E1,2.5E1,2E1,3E1,2.6E1,2.4E1,2.3E1,2.1E1,2.5E1,1.6E1,7E0,1.8E1,9E0,1.6E1,4E0,1.2E1],"tree_param":{"num_deleted":"0","num_feature":"24","num_nodes":"37","size_leaf_vector":"1"}},{"base_weights":[1.2610906E-1,-9.344494E0,1.2273073E1,-1.566554E1,-4.199234E0,6.080812E0,1.6663195E1,-1.0364659E0,-1.3396893E1,-7.5185013E0,-1.6463917E0,3.5934746E0,8.543021E0,5.7365644E-1,8.562579E-1,-7.510366E-1,-5.725668E-1,-4.278171E-1,-2.807759E-1,-3.1018248E0,-5.8074255E-2,1.06796466E-1,4.4146824E0,3.4566858E-1,4.8808822E-1,-1.8024841E-1,-9.683961E-2,-8.165097E-1,5.528957E-1,1.7120324E-1,2.5615662E-1,-5.1579196E-2,-1.6278306E-2,8.161499E-3,3.7185263E-2],"categories":[],"categories_nodes":[],"categories_segments":[],"categories_sizes":[],"default_left":[0,0,0,0,0,0,0,0,0,0,0,0,0,0,0,0,0,0,0,0,0,0,0,0,0,0,0,0,0,0,0,0,0,0,0],"id":11,"left_children":[1,3,5,7,9,11,13,-1,15,17,19,21,23,-1,-1,-1,-1,-1,-1,25,27,-1,29,-1,-1,-1,-1,31,33,-1,-1,-1,-1,-1,-1],"loss_changes":[6.039545E4,9.526639E3,6.1488984E3,1.2352852E3,1.3763699E3,5.621487E2,1.2194531E2,0E0,1.2231641E2,9.075879E1,2.1680272E2,4.976288E1,2.6179688E1,0E0,0E0,0E0,0E0,0E0,0E0,2.1186462E1,2.1793346E1,0E0,3.359253E0,0E0,0E0,0E0,0E0,1.7458124E0,1.7210617E0,0E0,0E0,0E0,0E0,0E0,0E0],"parents":[2147483647,0,0,1,1,2,2,3,3,4,4,5,5,6,6,8,8,9,9,10,10,11,11,12,12,19,19,20,20,22,22,27,27,28,28],"right_children":[2,4,6,8,10,12,14,-1,16,18,20,22,24,-1,-1,-1,-1,-1,-1,26,28,-1,30,-1,-1,-1,-1,32,34,-1,-1,-1,-1,-1,-1],"split_conditions":[-8.638015E-2,-7.233354E-1,4.8073748E-1,-1.1478624E0,-4.1878155E-1,1.7687699E-1,5.7954466E-1,-1.0364659E0,-8.9756775E-1,-5.624798E-1,-2.3929378E-1,6.5460457E-3,3.0650488E-1,5.7365644E-1,8.562579E-1,-7.510366E-1,-5.725668E-1,-4.278171E-1,-2.807759E-1,-3.1189615E-1,-1.649517E-1,1.06796466E-1,6.982389E-2,3.4566858E-1,4.8808822E-1,-1.8024841E-1,-9.683961E-2,-2.0437251E-1,-1.4710638E-1,1.7120324E-1,2.5615662E-1,-5.1579196E-2,-1.6278306E-2,8.161499E-3,3.7185263E-2],"split_indices":[20,20,20,20,20,20,20,0,20,20,20,20,20,0,0,0,0,0,0,20,20,0,20,0,0,0,0,20,20,0,0,0,0,0,0],"split_type":[0,0,0,0,0,0,0,0,0,0,0,0,0,0,0,0,0,0,0,0,0,0,0,0,0,0,0,0,0,0,0,0,0,0,0],"sum_hessian":[5.23E2,2.94E2,2.29E2,1.31E2,1.63E2,9.6E1,1.33E2,3.8E1,9.3E1,7E1,9.3E1,4.9E1,4.7E1,1.3E1,1.2E2,4.7E1,4.6E1,4.3E1,2.7E1,4.8E1,4.5E1,1.9E1,3E1,2.3E1,2.4E1,3.2E1,1.6E1,2E1,2.5E1,1.5E1,1.5E1,1.3E1,7E0,9E0,1.6E1],"tree_param":{"num_deleted":"0","num_feature":"24","num_nodes":"35","size_leaf_vector":"1"}},{"base_weights":[-1.2012248E-1,1.2337923E1,-7.85138E0,1.5932764E1,7.3267164E0,-2.1331873E0,-1.3230057E1,8.1789273E-1,5.901632E-1,9.343055E0,4.0399013E0,5.180935E-1,-4.121177E0,-1.025533E1,-1.6713835E1,5.340767E-1,6.2395406E0,4.8774786E0,4.8619634E-1,2.5311787E0,-6.0442364E-1,-2.1450846E0,-5.0892706E0,-4.310332E-1,-5.672532E-1,-7.5170887E-1,-1.0316108E0,3.3491102E-1,1.4099681E-1,3.1070676E-1,1.7812681E-1,4.4009097E-2,2.688431E-3,3.3095384E0,1.8316077E0,-1.833435E-1,-2.350835E0,-1.2023885E0,-1.8431352E-1,-1.8951511E-1,-3.1942293E-1,1.882635E-1,7.728451E-2,1.0343968E-1,4.380202E-2,2.3774086E-2,-3.3333883E-2,-5.4671176E-2,-1.3903184E-1,4.1246474E-2,-8.521443E-2],"categories":[],"categories_nodes":[],"categories_segments":[],"categories_sizes":[],"default_left":[0,0,0,0,0,0,0,0,0,0,0,0,0,0,0,0,0,0,0,0,0,0,0,0,0,0,0,0,0,0,0,0,0,0,0,0,0,0,0,0,0,0,0,0,0,0,0,0,0,0,0],"id":12,"left_children":[1,3,5,7,9,11,13,-1,-1,15,17,19,21,23,25,-1,27,29,31,33,35,37,39,-1,-1,-1,-1,-1,-1,-1,-1,-1,-1,41,43,45,47,49,-1,-1,-1,-1,-1,-1,-1,-1,-1,-1,-1,-1,-1],"loss_changes":[5.3070414E4,3.682E3,1.0427389E4,1.8267578E1,5.5737646E2,8.774349E2,1.6394707E3,0E0,0E0,1.601294E2,1.0424634E2,1.644226E2,1.7009875E2,7.2993164E1,2.0618555E2,0E0,9.961182E0,2.7855408E1,1.2222409E0,7.581558E0,3.387839E1,4.3023514E1,8.1086914E1,0E0,0E0,0E0,0E0,0E0,0E0,0E0,0E0,0E0,0E0,2.4912262E0,1.5195198E0,1.2754989E1,1.4361191E0,2.3879095E1,0E0,0E0,0E0,0E0,0E0,0E0,0E0,0E0,0E0,0E0,0E0,0E0,0E0],"parents":[2147483647,0,0,1,1,2,2,3,3,4,4,5,5,6,6,9,9,10,10,11,11,12,12,13,13,14,14,16,16,17,17,18,18,19,19,20,20,21,21,22,22,33,33,34,34,35,35,36,36,37,37],"right_children":[2,4,6,8,10,12,14,-1,-1,16,18,20,22,24,26,-1,28,30,32,34,36,38,40,-1,-1,-1,-1,-1,-1,-1,-1,-1,-1,42,44,46,48,50,-1,-1,-1,-1,-1,-1,-1,-1,-1,-1,-1,-1,-1],"split_conditions":[-3.0640435E-1,-7.9973465E-1,4.9652702E-1,-6.2341875E-1,-5.646551E-1,3.5009086E-2,1.1097652E0,8.1789273E-1,5.901632E-1,-2.908395E-1,1.09175764E-1,-2.600691E-1,-1.4172138E-1,7.36049E-1,1.7728322E0,5.340767E-1,1.6834962E-1,-4.0208635E-1,4.121459E-1,-6.009105E-1,5.2812666E-1,2.831222E-1,2.6868904E-1,-4.310332E-1,-5.672532E-1,-7.5170887E-1,-1.0316108E0,3.3491102E-1,1.4099681E-1,3.1070676E-1,1.7812681E-1,4.4009097E-2,2.688431E-3,7.1176195E-1,-9.506141E-2,5.4735817E-2,-2.0794946E-1,-6.979556E-1,-1.8431352E-1,-1.8951511E-1,-3.1942293E-1,1.882635E-1,7.728451E-2,1.0343968E-1,4.380202E-2,2.3774086E-2,-3.3333883E-2,-5.4671176E-2,-1.3903184E-1,4.1246474E-2,-8.521443E-2],"split_indices":[19,17,19,19,19,19,19,0,0,17,17,17,17,19,19,0,17,17,17,17,17,19,19,0,0,0,0,0,0,0,0,0,0,16,19,17,19,17,0,0,0,0,0,0,0,0,0,0,0,0,0],"split_type":[0,0,0,0,0,0,0,0,0,0,0,0,0,0,0,0,0,0,0,0,0,0,0,0,0,0,0,0,0,0,0,0,0,0,0,0,0,0,0,0,0,0,0,0,0,0,0,0,0,0,0],"sum_hessian":[5.49E2,2.1E2,3.39E2,1.21E2,8.9E1,1.65E2,1.74E2,1.07E2,1.4E1,5.4E1,3.5E1,7.1E1,9.4E1,9.6E1,7.8E1,3.6E1,1.8E1,2.8E1,7E0,2.5E1,4.6E1,3.2E1,6.2E1,4.2E1,5.4E1,5.8E1,2E1,1.5E1,3E0,1.2E1,1.6E1,3E0,4E0,1E1,1.5E1,3.8E1,8E0,2.1E1,1.1E1,3.3E1,2.9E1,7E0,3E0,1.1E1,4E0,1.6E1,2.2E1,3E0,5E0,4E0,1.7E1],"tree_param":{"num_deleted":"0","num_feature":"24","num_nodes":"51","size_leaf_vector":"1"}},{"base_weights":[3.8432203E-2,-8.220509E0,1.0814311E1,-1.313181E1,-3.2221563E0,5.033228E0,1.47568445E1,-1.6550875E1,-1.0486069E1,-5.4144015E0,-1.0152367E0,2.6019924E0,6.954758E0,5.7622546E-1,7.850898E-1,-9.697868E-1,-7.264396E-1,-5.749066E-1,-4.336958E-1,-3.2850537E-1,-2.1325691E-1,-1.9891388E0,8.8688165E-2,8.324583E-2,1.591428E-1,2.6411697E-1,3.9420426E-1,-1.23047195E-1,-6.828482E-2,-3.4562165E-1,4.801326E-1,-2.421369E-2,-2.2136036E-3,1.3188429E-2,3.7960377E-2],"categories":[],"categories_nodes":[],"categories_segments":[],"categories_sizes":[],"default_left":[0,0,0,0,0,0,0,0,0,0,0,0,0,0,0,0,0,0,0,0,0,0,0,0,0,0,0,0,0,0,0,0,0,0,0],"id":13,"left_children":[1,3,5,7,9,11,13,15,17,19,21,23,25,-1,-1,-1,-1,-1,-1,-1,-1,27,29,-1,-1,-1,-1,-1,-1,31,33,-1,-1,-1,-1],"loss_changes":[4.779174E4,7.4187695E3,5.2343066E3,1.2077754E3,7.2925256E2,4.2943066E2,2.3782812E2,8.872656E1,6.1476562E1,7.183789E1,8.315029E1,1.8165802E1,3.9410645E1,0E0,0E0,0E0,0E0,0E0,0E0,0E0,0E0,8.316345E0,6.469697E0,0E0,0E0,0E0,0E0,0E0,0E0,6.777952E-1,9.050832E-1,0E0,0E0,0E0,0E0],"parents":[2147483647,0,0,1,1,2,2,3,3,4,4,5,5,6,6,7,7,8,8,9,9,10,10,11,11,12,12,21,21,22,22,29,29,30,30],"right_children":[2,4,6,8,10,12,14,16,18,20,22,24,26,-1,-1,-1,-1,-1,-1,-1,-1,28,30,-1,-1,-1,-1,-1,-1,32,34,-1,-1,-1,-1],"split_conditions":[-8.638015E-2,-6.454136E-1,4.102128E-1,-9.787031E-1,-3.6645493E-1,1.1078257E-1,6.9898564E-1,-1.2274902E0,-7.707309E-1,-5.050575E-1,-2.1476924E-1,-1.9244535E-2,2.3225056E-1,5.7622546E-1,7.850898E-1,-9.697868E-1,-7.264396E-1,-5.749066E-1,-4.336958E-1,-3.2850537E-1,-2.1325691E-1,-2.7735126E-1,-1.5900666E-1,8.324583E-2,1.591428E-1,2.6411697E-1,3.9420426E-1,-1.23047195E-1,-6.828482E-2,-1.792237E-1,-1.3014299E-1,-2.421369E-2,-2.2136036E-3,1.3188429E-2,3.7960377E-2],"split_indices":[20,20,20,20,20,20,20,20,20,20,20,20,20,0,0,0,0,0,0,0,0,20,20,0,0,0,0,0,0,20,20,0,0,0,0],"split_type":[0,0,0,0,0,0,0,0,0,0,0,0,0,0,0,0,0,0,0,0,0,0,0,0,0,0,0,0,0,0,0,0,0,0,0],"sum_hessian":[5.35E2,3.03E2,2.32E2,1.52E2,1.51E2,9.5E1,1.37E2,6.4E1,8.8E1,7.5E1,7.6E1,4.3E1,5.2E1,3.4E1,1.03E2,2.3E1,4.1E1,5.3E1,3.5E1,3.5E1,4E1,4E1,3.6E1,1.8E1,2.5E1,2.1E1,3.1E1,2.1E1,1.9E1,1.7E1,1.9E1,1.1E1,6E0,1.2E1,7E0],"tree_param":{"num_deleted":"0","num_feature":"24","num_nodes":"35","size_leaf_vector":"1"}},{"base_weights":[-3.404557E-1,-8.076112E0,1.011052E1,-1.3216519E1,-3.7131736E0,4.2204146E0,1.38508005E1,-1.1224875E1,-8.674903E-1,-6.037846E0,-1.3154315E0,2.35622E0,6.113522E0,4.9853835E-1,7.391083E-1,-6.293013E-1,-4.8608682E-1,-3.61592E-1,-2.3204282E-1,-2.598951E0,-2.4757674E-1,7.338446E-2,1.5377098E-1,2.444999E-1,3.4219E-1,-1.4539957E-1,-8.8662915E-2,-8.434419E-1,3.5443744E-1,-4.9394075E-2,-1.6862422E-2,5.274512E-3,2.7463907E-2],"categories":[],"categories_nodes":[],"categories_segments":[],"categories_sizes":[],"default_left":[0,0,0,0,0,0,0,0,0,0,0,0,0,0,0,0,0,0,0,0,0,0,0,0,0,0,0,0,0,0,0,0,0],"id":14,"left_children":[1,3,5,7,9,11,13,15,-1,17,19,21,23,-1,-1,-1,-1,-1,-1,25,27,-1,-1,-1,-1,-1,-1,29,31,-1,-1,-1,-1],"loss_changes":[4.333361E4,6.856834E3,4.9627246E3,9.631094E2,9.277488E2,3.0236914E2,3.5244336E2,7.5918945E1,0E0,1.0703027E2,1.14203354E2,2.5066406E1,4.6749268E0,0E0,0E0,0E0,0E0,0E0,0E0,4.071808E0,1.7207655E1,0E0,0E0,0E0,0E0,0E0,0E0,1.2890701E0,1.0407012E0,0E0,0E0,0E0,0E0],"parents":[2147483647,0,0,1,1,2,2,3,3,4,4,5,5,6,6,7,7,9,9,10,10,11,11,12,12,19,19,20,20,27,27,28,28],"right_children":[2,4,6,8,10,12,14,16,-1,18,20,22,24,-1,-1,-1,-1,-1,-1,26,28,-1,-1,-1,-1,-1,-1,30,32,-1,-1,-1,-1],"split_conditions":[-1.03054225E-1,-7.1351177E-1,3.9287835E-1,1.5278119E0,-3.9972332E-1,1.1078257E-1,6.2346524E-1,-8.885077E-1,-8.674903E-1,-5.5101883E-1,-2.5642487E-1,-1.9244535E-2,2.2528005E-1,4.9853835E-1,7.391083E-1,-6.293013E-1,-4.8608682E-1,-3.61592E-1,-2.3204282E-1,-3.1189615E-1,-1.792237E-1,7.338446E-2,1.5377098E-1,2.444999E-1,3.4219E-1,-1.4539957E-1,-8.8662915E-2,-2.0917886E-1,-1.4710638E-1,-4.9394075E-2,-1.6862422E-2,5.274512E-3,2.7463907E-2],"split_indices":[20,20,20,19,20,20,20,20,0,20,20,20,20,0,0,0,0,0,0,20,20,0,0,0,0,0,0,20,20,0,0,0,0],"split_type":[0,0,0,0,0,0,0,0,0,0,0,0,0,0,0,0,0,0,0,0,0,0,0,0,0,0,0,0,0,0,0,0,0],"sum_hessian":[5.34E2,3.07E2,2.27E2,1.4E2,1.67E2,8.9E1,1.38E2,9.7E1,4.3E1,8.4E1,8.3E1,4.6E1,4.3E1,2.9E1,1.09E2,4.7E1,5E1,4.3E1,4.1E1,3.7E1,4.6E1,2.2E1,2.4E1,1.9E1,2.4E1,2.5E1,1.2E1,2.3E1,2.3E1,1.7E1,6E0,1.1E1,1.2E1],"tree_param":{"num_deleted":"0","num_feature":"24","num_nodes":"33","size_leaf_vector":"1"}},{"base_weights":[-4.092376E-1,-7.8401895E0,9.757386E0,-1.271326E1,-3.5797102E0,4.4436235E0,1.3435797E1,-8.4862626E-1,-1.0846957E1,-6.041726E0,-1.4752271E0,2.4917839E0,6.423376E0,5.082843E-1,7.0942754E-1,-6.1515164E-1,-4.7015962E-1,-3.577292E-1,-2.3396933E-1,-2.5124958E0,-2.6071197E-1,1.5375389E0,1.5915321E-1,2.643096E-1,3.735402E-1,-1.4372508E-1,-8.518399E-2,-7.770382E-1,3.3702806E-1,4.7269102E-2,8.425212E-2,-5.0937116E-2,-1.6338913E-2,5.7472507E-3,2.5969064E-2],"categories":[],"categories_nodes":[],"categories_segments":[],"categories_sizes":[],"default_left":[0,0,0,0,0,0,0,0,0,0,0,0,0,0,0,0,0,0,0,0,0,0,0,0,0,0,0,0,0,0,0,0,0,0,0],"id":15,"left_children":[1,3,5,7,9,11,13,-1,15,17,19,21,23,-1,-1,-1,-1,-1,-1,25,27,29,-1,-1,-1,-1,-1,31,33,-1,-1,-1,-1,-1,-1],"loss_changes":[4.1325348E4,6.5135312E3,4.4536797E3,9.816328E2,8.711516E2,3.5406213E2,1.8810547E2,0E0,1.0287598E2,8.359253E1,1.16227066E2,2.7616394E1,1.5214722E1,0E0,0E0,0E0,0E0,0E0,0E0,9.2847595E0,1.3885553E1,1.5288544E-1,0E0,0E0,0E0,0E0,0E0,2.1444569E0,7.273159E-1,0E0,0E0,0E0,0E0,0E0,0E0],"parents":[2147483647,0,0,1,1,2,2,3,3,4,4,5,5,6,6,8,8,9,9,10,10,11,11,12,12,19,19,20,20,21,21,27,27,28,28],"right_children":[2,4,6,8,10,12,14,-1,16,18,20,22,24,-1,-1,-1,-1,-1,-1,26,28,30,-1,-1,-1,-1,-1,32,34,-1,-1,-1,-1,-1,-1],"split_conditions":[-1.03054225E-1,-7.233354E-1,4.102128E-1,-1.1478624E0,-4.1878155E-1,1.2236207E-1,6.730156E-1,-8.4862626E-1,-9.11155E-1,-5.704758E-1,-2.5642487E-1,-8.56778E-3,2.931458E-1,5.082843E-1,7.0942754E-1,-6.1515164E-1,-4.7015962E-1,-3.577292E-1,-2.3396933E-1,-3.1189615E-1,-1.792237E-1,-7.4611016E-2,1.5915321E-1,2.643096E-1,3.735402E-1,-1.4372508E-1,-8.518399E-2,-2.0917886E-1,-1.4710638E-1,4.7269102E-2,8.425212E-2,-5.0937116E-2,-1.6338913E-2,5.7472507E-3,2.5969064E-2],"split_indices":[20,20,20,20,20,20,20,0,20,20,20,20,20,0,0,0,0,0,0,20,20,20,0,0,0,0,0,20,20,0,0,0,0,0,0],"split_type":[0,0,0,0,0,0,0,0,0,0,0,0,0,0,0,0,0,0,0,0,0,0,0,0,0,0,0,0,0,0,0,0,0,0,0],"sum_hessian":[5.45E2,3.15E2,2.3E2,1.46E2,1.69E2,9.5E1,1.35E2,4.2E1,1.04E2,7.7E1,9.2E1,4.9E1,4.6E1,2.8E1,1.07E2,4.8E1,5.6E1,4E1,3.7E1,4.9E1,4.3E1,2.2E1,2.7E1,2.5E1,2.1E1,3.2E1,1.7E1,2.3E1,2E1,6E0,1.6E1,1.4E1,9E0,1E1,1E1],"tree_param":{"num_deleted":"0","num_feature":"24","num_nodes":"35","size_leaf_vector":"1"}},{"base_weights":[1.3991278E-1,-7.3534513E0,9.4429455E0,-1.2160318E1,-3.3907363E0,4.4496217E0,1.2894765E1,-8.222149E-1,-1.0443992E1,-5.7003922E0,-1.2302196E0,2.5450754E0,6.3001866E0,5.1878786E-1,6.82089E-1,-5.863465E-1,-4.443966E-1,-3.405396E-1,-2.2363715E-1,-2.2987053E0,-7.918182E-2,8.138048E-2,1.6021207E-1,2.6022372E-1,3.7542713E-1,-1.3496898E-1,-7.822161E-2,-5.600294E-1,4.235719E-1,-3.8792413E-2,-1.3229399E-2,5.316486E-3,2.8372759E-2],"categories":[],"categories_nodes":[],"categories_segments":[],"categories_sizes":[],"default_left":[0,0,0,0,0,0,0,0,0,0,0,0,0,0,0,0,0,0,0,0,0,0,0,0,0,0,0,0,0,0,0,0,0],"id":16,"left_children":[1,3,5,7,9,11,13,-1,15,17,19,21,23,-1,-1,-1,-1,-1,-1,25,27,-1,-1,-1,-1,-1,-1,29,31,-1,-1,-1,-1],"loss_changes":[3.6877062E4,5.5383496E3,4.0085977E3,7.9612305E2,8.0068225E2,3.2848047E2,1.1761719E2,0E0,8.735449E1,7.473706E1,1.0411894E2,2.4539642E1,2.4527344E1,0E0,0E0,0E0,0E0,0E0,0E0,8.2956085E0,1.0404272E1,0E0,0E0,0E0,0E0,0E0,0E0,1.0934362E0,8.3084655E-1,0E0,0E0,0E0,0E0],"parents":[2147483647,0,0,1,1,2,2,3,3,4,4,5,5,6,6,8,8,9,9,10,10,11,11,12,12,19,19,20,20,27,27,28,28],"right_children":[2,4,6,8,10,12,14,-1,16,18,20,22,24,-1,-1,-1,-1,-1,-1,26,28,-1,-1,-1,-1,-1,-1,30,32,-1,-1,-1,-1],"split_conditions":[-9.933669E-2,-7.233354E-1,4.4448233E-1,-1.1670005E0,-4.1174656E-1,1.3168725E-1,7.459658E-1,-8.222149E-1,-9.11155E-1,-5.704758E-1,-2.5554186E-1,1.891597E-2,3.0650488E-1,5.1878786E-1,6.82089E-1,-5.863465E-1,-4.443966E-1,-3.405396E-1,-2.2363715E-1,-3.1189615E-1,-1.649517E-1,8.138048E-2,1.6021207E-1,2.6022372E-1,3.7542713E-1,-1.3496898E-1,-7.822161E-2,-2.0437251E-1,-1.4710638E-1,-3.8792413E-2,-1.3229399E-2,5.316486E-3,2.8372759E-2],"split_indices":[20,20,20,20,20,20,20,0,20,20,20,20,20,0,0,0,0,0,0,20,20,0,0,0,0,0,0,20,20,0,0,0,0],"split_type":[0,0,0,0,0,0,0,0,0,0,0,0,0,0,0,0,0,0,0,0,0,0,0,0,0,0,0,0,0,0,0,0,0],"sum_hessian":[5.27E2,2.92E2,2.35E2,1.31E2,1.61E2,9.7E1,1.38E2,3.5E1,9.6E1,7.7E1,8.4E1,4.9E1,4.8E1,3.5E1,1.03E2,4.9E1,4.7E1,3.8E1,3.9E1,4.3E1,4.1E1,2.2E1,2.7E1,2.8E1,2E1,2.6E1,1.7E1,2.1E1,2E1,1.1E1,1E1,7E0,1.3E1],"tree_param":{"num_deleted":"0","num_feature":"24","num_nodes":"33","size_leaf_vector":"1"}},{"base_weights":[8.5587084E-2,9.328471E0,-6.320037E0,1.1873857E1,4.573687E0,-1.8631202E0,-1.049148E1,6.394752E-1,9.028675E0,6.7916174E0,2.794058E0,3.800572E-1,-3.3800447E0,-8.154631E0,-1.3887733E1,5.069341E-1,3.0532265E-1,4.3731532E-1,5.6085677E0,1.9905853E-1,1.367478E0,1.9149398E0,-6.110229E-1,-9.4384694E-1,-3.9183316E0,-3.505864E-1,-4.6104023E-1,-6.238802E-1,-8.8748306E-1,2.9837498E-1,1.5155639E-1,1.12153426E-1,5.81064E-1,1.2855926E-1,1.1036992E0,-1.2598292E-2,-1.4642209E0,4.1150652E-2,-1.5145936E0,-3.0072339E0,-4.6796722E0,4.8341252E-2,4.900404E-3,6.313209E-2,2.02709E-2,2.1060674E-2,-2.4492225E-2,-4.7450215E-2,-1.0740407E-1,-8.946304E-3,-9.267548E-2,-6.121233E-2,-1.5628038E-1,-1.7997457E-1,-2.6003203E-1],"categories":[],"categories_nodes":[],"categories_segments":[],"categories_sizes":[],"default_left":[0,0,0,0,0,0,0,0,0,0,0,0,0,0,0,0,0,0,0,0,0,0,0,0,0,0,0,0,0,0,0,0,0,0,0,0,0,0,0,0,0,0,0,0,0,0,0,0,0,0,0,0,0,0,0],"id":17,"left_children":[1,3,5,7,9,11,13,-1,15,17,19,21,23,25,27,-1,-1,-1,29,-1,31,33,35,37,39,-1,-1,-1,-1,-1,-1,-1,41,-1,43,45,47,-1,49,51,53,-1,-1,-1,-1,-1,-1,-1,-1,-1,-1,-1,-1,-1,-1],"loss_changes":[3.1675494E4,2.5945527E3,5.854218E3,2.5228125E2,2.8793848E2,5.2560516E2,1.1782012E3,0E0,5.972412E1,2.8135132E1,7.0229004E1,9.713554E1,1.1646179E2,5.435791E1,1.2948242E2,0E0,0E0,0E0,3.2147827E0,0E0,1.3562904E1,1.0104019E1,1.9746284E1,1.9467417E1,3.718274E1,0E0,0E0,0E0,0E0,0E0,0E0,0E0,2.2212338E0,0E0,7.6412296E-1,5.182033E0,3.2891312E0,0E0,5.8026237E0,3.547699E0,2.347168E0,0E0,0E0,0E0,0E0,0E0,0E0,0E0,0E0,0E0,0E0,0E0,0E0,0E0,0E0],"parents":[2147483647,0,0,1,1,2,2,3,3,4,4,5,5,6,6,8,8,9,9,10,10,11,11,12,12,13,13,14,14,18,18,20,20,21,21,22,22,23,23,24,24,32,32,34,34,35,35,36,36,38,38,39,39,40,40],"right_children":[2,4,6,8,10,12,14,-1,16,18,20,22,24,26,28,-1,-1,-1,30,-1,32,34,36,38,40,-1,-1,-1,-1,-1,-1,-1,42,-1,44,46,48,-1,50,52,54,-1,-1,-1,-1,-1,-1,-1,-1,-1,-1,-1,-1,-1,-1],"split_conditions":[-2.4540691E-1,-6.1747915E-1,4.8776403E-1,-7.29262E-1,-6.091573E-1,3.5009086E-2,1.1685289E0,6.394752E-1,-8.234042E-1,-8.8459057E-1,-6.124494E-2,-2.7663776E-1,-2.5770214E-1,8.252254E-1,1.9821132E0,5.069341E-1,3.0532265E-1,4.3731532E-1,1.4497594E-2,1.9905853E-1,-4.0468732E-1,-5.2516794E-1,1.6124876E-1,-8.589085E-1,2.6868904E-1,-3.505864E-1,-4.6104023E-1,-6.238802E-1,-8.8748306E-1,2.9837498E-1,1.5155639E-1,1.12153426E-1,2.6776168E-1,1.2855926E-1,-6.482042E-2,-1.3217528E-1,1.1964667E0,4.1150652E-2,1.21779926E-1,-1.4172138E-1,1.2337749E-1,4.8341252E-2,4.900404E-3,6.313209E-2,2.02709E-2,2.1060674E-2,-2.4492225E-2,-4.7450215E-2,-1.0740407E-1,-8.946304E-3,-9.267548E-2,-6.121233E-2,-1.5628038E-1,-1.7997457E-1,-2.6003203E-1],"split_indices":[19,17,19,19,19,19,19,0,17,19,17,17,17,19,19,0,0,0,17,0,19,17,17,17,19,0,0,0,0,0,0,0,17,0,19,19,21,0,19,17,17,0,0,0,0,0,0,0,0,0,0,0,0,0,0],"split_type":[0,0,0,0,0,0,0,0,0,0,0,0,0,0,0,0,0,0,0,0,0,0,0,0,0,0,0,0,0,0,0,0,0,0,0,0,0,0,0,0,0,0,0,0,0,0,0,0,0,0,0,0,0,0,0],"sum_hessian":[5.33E2,2.18E2,3.15E2,1.41E2,7.7E1,1.53E2,1.62E2,1.04E2,3.7E1,3.3E1,4.4E1,6.2E1,9.1E1,9.8E1,6.4E1,2.5E1,1.2E1,1E1,2.3E1,2.3E1,2.1E1,2.4E1,3.8E1,1.7E1,7.4E1,5.1E1,4.7E1,5E1,1.4E1,1.9E1,4E0,9E0,1.2E1,1.2E1,1.2E1,2.3E1,1.5E1,4E0,1.3E1,3.6E1,3.8E1,6E0,6E0,9E0,3E0,1.2E1,1.1E1,1E1,5E0,3E0,1E1,3E0,3.3E1,1.5E1,2.3E1],"tree_param":{"num_deleted":"0","num_feature":"24","num_nodes":"55","size_leaf_vector":"1"}},{"base_weights":[7.1324475E-2,-6.0240097E0,9.118788E0,-1.0181715E1,-2.1207721E0,4.871226E0,1.190283E1,-8.207175E0,-1.333416E1,-3.8583527E0,-1.19806625E-1,3.246348E0,6.648555E0,4.9477252E-1,6.192886E-1,-4.5542488E-1,-3.440449E-1,-8.4142345E-1,-5.896601E-1,-2.3294377E-1,-1.2977672E-1,-1.0732564E0,6.645811E-1,1.1619736E-1,1.9845444E-1,2.5060162E-1,3.6029455E-1,-6.9848135E-2,-4.9868968E-1,2.2096488E-1,5.1968586E-2,-3.0689387E-2,-1.0353902E-2,-2.124612E-3,1.6433354E-2],"categories":[],"categories_nodes":[],"categories_segments":[],"categories_sizes":[],"default_left":[0,0,0,0,0,0,0,0,0,0,0,0,0,0,0,0,0,0,0,0,0,0,0,0,0,0,0,0,0,0,0,0,0,0,0],"id":18,"left_children":[1,3,5,7,9,11,13,15,17,19,21,23,25,-1,-1,-1,-1,-1,-1,-1,-1,27,29,-1,-1,-1,-1,-1,31,33,-1,-1,-1,-1,-1],"loss_changes":[3.0551703E4,5.3488125E3,2.5774043E3,8.8435156E2,5.971562E2,2.373418E2,5.1152344E0,5.6462402E1,1.2175098E2,8.01864E1,6.133195E1,2.2812927E1,9.700928E-1,0E0,0E0,0E0,0E0,0E0,0E0,0E0,0E0,5.9954414E0,7.126148E0,0E0,0E0,0E0,0E0,0E0,2.9427075E-1,6.6683125E-1,0E0,0E0,0E0,0E0,0E0],"parents":[2147483647,0,0,1,1,2,2,3,3,4,4,5,5,6,6,7,7,8,8,9,9,10,10,11,11,12,12,21,21,22,22,28,28,29,29],"right_children":[2,4,6,8,10,12,14,16,18,20,22,24,26,-1,-1,-1,-1,-1,-1,-1,-1,28,30,-1,-1,-1,-1,-1,32,34,-1,-1,-1,-1,-1],"split_conditions":[-3.2459162E-2,-6.2890786E-1,5.3549564E-1,1.3132042E0,-3.1189615E-1,2.3225056E-1,7.6947284E-1,-7.8894794E-1,-1.2781475E0,-4.2659476E-1,-1.792237E-1,9.257793E-2,3.396419E-1,4.9477252E-1,6.192886E-1,-4.5542488E-1,-3.440449E-1,-8.4142345E-1,-5.896601E-1,-2.3294377E-1,-1.2977672E-1,-2.3442493E-1,-1.20497465E-1,1.1619736E-1,1.9845444E-1,2.5060162E-1,3.6029455E-1,-6.9848135E-2,-2.0437251E-1,-1.5507579E-1,5.1968586E-2,-3.0689387E-2,-1.0353902E-2,-2.124612E-3,1.6433354E-2],"split_indices":[20,20,20,19,20,20,20,20,20,20,20,20,20,0,0,0,0,0,0,0,0,20,20,0,0,0,0,0,20,20,0,0,0,0,0],"split_type":[0,0,0,0,0,0,0,0,0,0,0,0,0,0,0,0,0,0,0,0,0,0,0,0,0,0,0,0,0,0,0,0,0,0,0],"sum_hessian":[5.52E2,3.3E2,2.22E2,1.59E2,1.71E2,8.9E1,1.33E2,1E2,5.9E1,9.1E1,8E1,4.8E1,4.1E1,3E1,1.03E2,5.6E1,4.4E1,1.5E1,4.4E1,5.4E1,3.7E1,3.6E1,4.4E1,2.3E1,2.5E1,1.3E1,2.8E1,2.2E1,1.4E1,2.1E1,2.3E1,9E0,5E0,6E0,1.5E1],"tree_param":{"num_deleted":"0","num_feature":"24","num_nodes":"35","size_leaf_vector":"1"}},{"base_weights":[-8.9187205E-2,7.2532E0,-6.3429127E0,1.0692376E1,3.5234687E0,-3.0855381E0,-1.0059265E1,5.797338E-1,8.157138E0,6.0400376E0,1.3714268E0,-1.6554637E0,-5.113841E0,-8.693699E0,-6.719252E-1,4.7164688E-1,2.943421E-1,7.1538324E0,2.0198126E-1,2.6757038E0,2.0742667E-1,7.6439995E-1,-2.2081227E0,-1.9293909E-1,-2.8606716E-1,-3.601648E-1,-4.8318812E-1,4.6463495E-1,3.0672312E-1,1.5446554E-1,8.168768E-2,6.463479E-1,-7.159448E-1,1.0480702E0,-2.3273163E-2,-1.5085968E0,-3.1716733E0,6.1078675E-2,8.7379655E-3,-0E0,-4.7736775E-2,6.2253185E-2,8.503608E-3,-3.1735208E-2,-1.0220728E-1,-1.0183068E-1,-1.7367902E-1],"categories":[],"categories_nodes":[],"categories_segments":[],"categories_sizes":[],"default_left":[0,0,0,0,0,0,0,0,0,0,0,0,0,0,0,0,0,0,0,0,0,0,0,0,0,0,0,0,0,0,0,0,0,0,0,0,0,0,0,0,0,0,0,0,0,0,0],"id":19,"left_children":[1,3,5,7,9,11,13,-1,15,17,19,21,23,25,-1,-1,-1,27,-1,29,31,33,35,-1,-1,-1,-1,-1,-1,-1,-1,37,39,41,-1,43,45,-1,-1,-1,-1,-1,-1,-1,-1,-1,-1],"loss_changes":[2.4657574E4,3.1292236E3,3.4782578E3,1.9625098E2,6.408668E2,4.4335474E2,5.0392383E2,0E0,5.01062E1,9.2524414E1,9.935645E1,1.2620668E2,2.5761475E1,7.183496E1,0E0,0E0,0E0,1.5581787E1,0E0,7.84021E0,1.5046135E1,6.82586E0,4.597336E1,0E0,0E0,0E0,0E0,0E0,0E0,0E0,0E0,6.42863E0,2.0527549E0,2.2411327E0,0E0,1.9963242E1,2.9978027E0,0E0,0E0,0E0,0E0,0E0,0E0,0E0,0E0,0E0,0E0],"parents":[2147483647,0,0,1,1,2,2,3,3,4,4,5,5,6,6,8,8,9,9,10,10,11,11,12,12,13,13,17,17,19,19,20,20,21,21,22,22,31,31,32,32,33,33,35,35,36,36],"right_children":[2,4,6,8,10,12,14,-1,16,18,20,22,24,26,-1,-1,-1,28,-1,30,32,34,36,-1,-1,-1,-1,-1,-1,-1,-1,38,40,42,-1,44,46,-1,-1,-1,-1,-1,-1,-1,-1,-1,-1],"split_conditions":[-1.15508325E-1,-6.884878E-1,6.9017214E-1,-7.38025E-1,-5.0039303E-1,3.1525323E-1,1.5278119E0,5.797338E-1,-9.725223E-1,-2.7663776E-1,-8.018057E-2,-3.9498547E-1,1.3994616E-1,9.551241E-1,-6.719252E-1,4.7164688E-1,2.943421E-1,-9.184397E-1,2.0198126E-1,-2.1791518E-1,3.4823814E-1,1.6490766E-1,2.7486256E-1,-1.9293909E-1,-2.8606716E-1,-3.601648E-1,-4.8318812E-1,4.6463495E-1,3.0672312E-1,1.5446554E-1,8.168768E-2,-2.7152413E-1,-3.0640435E-1,8.204855E-1,-2.3273163E-2,7.830861E-2,7.195106E-2,6.1078675E-2,8.7379655E-3,-0E0,-4.7736775E-2,6.2253185E-2,8.503608E-3,-3.1735208E-2,-1.0220728E-1,-1.0183068E-1,-1.7367902E-1],"split_indices":[19,17,19,19,19,19,19,0,17,17,17,17,17,19,0,0,0,19,0,19,17,19,17,0,0,0,0,0,0,0,0,19,19,10,0,19,19,0,0,0,0,0,0,0,0,0,0],"split_type":[0,0,0,0,0,0,0,0,0,0,0,0,0,0,0,0,0,0,0,0,0,0,0,0,0,0,0,0,0,0,0,0,0,0,0,0,0,0,0,0,0,0,0,0,0,0,0],"sum_hessian":[5.35E2,2.46E2,2.89E2,1.27E2,1.19E2,1.55E2,1.34E2,9.1E1,3.6E1,5.4E1,6.5E1,9.2E1,6.3E1,9.8E1,3.6E1,2.1E1,1.5E1,3.3E1,2.1E1,3E1,3.5E1,1.7E1,7.5E1,2.3E1,4E1,4.2E1,5.6E1,8E0,2.5E1,2E1,1E1,2.4E1,1.1E1,1.4E1,3E0,4.5E1,3E1,1E1,1.4E1,3E0,8E0,1.1E1,3E0,1.8E1,2.7E1,8E0,2.2E1],"tree_param":{"num_deleted":"0","num_feature":"24","num_nodes":"47","size_leaf_vector":"1"}},{"base_weights":[4.693771E-2,-5.6762495E0,7.7430234E0,-9.433773E0,-2.1355333E0,4.154291E0,1.0658925E1,-6.985088E-1,-8.117781E0,-3.7584682E0,-5.817648E-1,2.3756483E0,5.790906E0,4.4435355E-1,5.599231E-1,-4.687278E-1,-3.3631447E-1,-2.2380446E-1,-1.3771312E-1,-1.3458792E0,2.686477E-1,1.6642803E0,1.4976627E-1,2.2489822E-1,3.2882607E-1,-8.54943E-2,-4.218432E-2,-3.1349838E-2,5.6061435E-1,4.901242E-2,9.041388E-2,-7.6628113E-3,6.8554687E-3,1.7265556E-2,3.5793092E-2],"categories":[],"categories_nodes":[],"categories_segments":[],"categories_sizes":[],"default_left":[0,0,0,0,0,0,0,0,0,0,0,0,0,0,0,0,0,0,0,0,0,0,0,0,0,0,0,0,0,0,0,0,0,0,0],"id":20,"left_children":[1,3,5,7,9,11,13,-1,15,17,19,21,23,-1,-1,-1,-1,-1,-1,25,27,29,-1,-1,-1,-1,-1,31,33,-1,-1,-1,-1,-1,-1],"loss_changes":[2.4269535E4,4.1828643E3,2.413371E3,7.977744E2,4.1093256E2,2.9689844E2,2.179004E1,0E0,1.4693799E2,4.459961E1,5.570335E1,1.7912354E1,2.5177979E1,0E0,0E0,0E0,0E0,0E0,0E0,6.5281143E0,3.6616626E0,6.080475E-1,0E0,0E0,0E0,0E0,0E0,4.538889E-1,3.4861803E-1,0E0,0E0,0E0,0E0,0E0,0E0],"parents":[2147483647,0,0,1,1,2,2,3,3,4,4,5,5,6,6,8,8,9,9,10,10,11,11,12,12,19,19,20,20,21,21,27,27,28,28],"right_children":[2,4,6,8,10,12,14,-1,16,18,20,22,24,-1,-1,-1,-1,-1,-1,26,28,30,-1,-1,-1,-1,-1,32,34,-1,-1,-1,-1,-1,-1],"split_conditions":[-7.4611016E-2,-6.454136E-1,5.3549564E-1,-1.1801186E0,-3.6645493E-1,1.7687699E-1,7.6947284E-1,-6.985088E-1,-8.591476E-1,-4.6638793E-1,-2.0917886E-1,5.3386632E-2,3.396419E-1,4.4435355E-1,5.599231E-1,-4.687278E-1,-3.3631447E-1,-2.2380446E-1,-1.3771312E-1,-2.7028748E-1,-1.4710638E-1,-5.1807135E-2,1.4976627E-1,2.2489822E-1,3.2882607E-1,-8.54943E-2,-4.218432E-2,-1.5900666E-1,-1.20497465E-1,4.901242E-2,9.041388E-2,-7.6628113E-3,6.8554687E-3,1.7265556E-2,3.5793092E-2],"split_indices":[20,20,20,20,20,20,20,0,20,20,20,20,20,0,0,0,0,0,0,20,20,20,0,0,0,0,0,20,20,0,0,0,0,0,0],"split_type":[0,0,0,0,0,0,0,0,0,0,0,0,0,0,0,0,0,0,0,0,0,0,0,0,0,0,0,0,0,0,0,0,0,0,0],"sum_hessian":[5.49E2,3.15E2,2.34E2,1.52E2,1.63E2,1.06E2,1.28E2,3.2E1,1.2E2,7.9E1,8.4E1,5.2E1,5.4E1,3.4E1,9.4E1,6E1,6E1,4.4E1,3.5E1,4.4E1,4E1,2.6E1,2.6E1,2.3E1,3.1E1,2.4E1,2E1,2E1,2E1,6E0,2E1,1.2E1,8E0,1E1,1E1],"tree_param":{"num_deleted":"0","num_feature":"24","num_nodes":"35","size_leaf_vector":"1"}},{"base_weights":[-1.6474691E-1,-5.822597E0,6.988327E0,-9.516391E0,-2.8589988E0,3.0587945E0,9.796599E0,-6.7591566E-1,-8.373917E0,-4.708432E0,-1.1964983E0,1.7057692E0,4.4294724E0,3.4016547E-1,5.1861346E-1,-4.722095E-1,-3.5436293E-1,-2.6938507E-1,-1.794031E-1,-1.9774144E0,-1.9878094E-1,1.0487272E0,1.1162867E-1,1.7713149E-1,2.513928E-1,-1.1572838E-1,-7.039534E-2,-5.521602E-1,2.5279188E-1,3.653966E-2,5.977556E-2,-3.272387E-2,-9.79466E-3,1.9501168E-3,1.7038574E-2],"categories":[],"categories_nodes":[],"categories_segments":[],"categories_sizes":[],"default_left":[0,0,0,0,0,0,0,0,0,0,0,0,0,0,0,0,0,0,0,0,0,0,0,0,0,0,0,0,0,0,0,0,0,0,0],"id":21,"left_children":[1,3,5,7,9,11,13,-1,15,17,19,21,23,-1,-1,-1,-1,-1,-1,25,27,29,-1,-1,-1,-1,-1,31,33,-1,-1,-1,-1,-1,-1],"loss_changes":[2.254246E4,3.376046E3,2.6834072E3,5.155586E2,5.287709E2,1.8470532E2,1.7412695E2,0E0,8.289209E1,4.217578E1,7.1848724E1,1.6021667E1,8.395386E0,0E0,0E0,0E0,0E0,0E0,0E0,6.3536377E0,6.87173E0,1.4705658E-1,0E0,0E0,0E0,0E0,0E0,6.616087E-1,3.0610502E-1,0E0,0E0,0E0,0E0,0E0,0E0],"parents":[2147483647,0,0,1,1,2,2,3,3,4,4,5,5,6,6,8,8,9,9,10,10,11,11,12,12,19,19,20,20,21,21,27,27,28,28],"right_children":[2,4,6,8,10,12,14,-1,16,18,20,22,24,-1,-1,-1,-1,-1,-1,26,28,30,-1,-1,-1,-1,-1,32,34,-1,-1,-1,-1,-1,-1],"split_conditions":[-1.03054225E-1,-7.3990446E-1,3.9979616E-1,-1.2274902E0,-4.2659476E-1,1.1078257E-1,5.7954466E-1,-6.7591566E-1,-9.175661E-1,-5.704758E-1,-2.5642487E-1,-8.56778E-3,2.3225056E-1,3.4016547E-1,5.1861346E-1,-4.722095E-1,-3.5436293E-1,-2.6938507E-1,-1.794031E-1,-3.420427E-1,-1.649517E-1,-7.4611016E-2,1.1162867E-1,1.7713149E-1,2.513928E-1,-1.1572838E-1,-7.039534E-2,-1.8864393E-1,-1.496427E-1,3.653966E-2,5.977556E-2,-3.272387E-2,-9.79466E-3,1.9501168E-3,1.7038574E-2],"split_indices":[20,20,20,20,20,20,20,0,20,20,20,20,20,0,0,0,0,0,0,20,20,20,0,0,0,0,0,20,20,0,0,0,0,0,0],"split_type":[0,0,0,0,0,0,0,0,0,0,0,0,0,0,0,0,0,0,0,0,0,0,0,0,0,0,0,0,0,0,0,0,0,0,0],"sum_hessian":[5.55E2,3.1E2,2.45E2,1.37E2,1.73E2,1.03E2,1.42E2,2.8E1,1.09E2,8.1E1,9.2E1,5.3E1,5E1,2.5E1,1.17E2,5.6E1,5.3E1,4.8E1,3.3E1,5.1E1,4.1E1,2.5E1,2.8E1,2.3E1,2.7E1,3E1,2.1E1,2.3E1,1.8E1,1E1,1.5E1,1.7E1,6E0,6E0,1.2E1],"tree_param":{"num_deleted":"0","num_feature":"24","num_nodes":"35","size_leaf_vector":"1"}},{"base_weights":[1.696307E-1,-4.992228E0,7.386789E0,-8.43822E0,-1.4921969E0,3.970816E0,9.788536E0,-1.1623092E1,-6.8697176E0,-2.9144657E0,-6.780413E-2,2.4701824E0,5.215084E0,3.937021E-1,5.070073E-1,-7.291516E-1,-4.9909613E-1,-3.9706072E-1,-2.8357494E-1,-1.8214713E-1,-2.071337E0,-6.595377E-1,5.3791785E-1,9.217199E-2,1.5185377E-1,2.134E-1,2.978871E-1,-1.1458476E-1,-7.7965885E-2,-8.8905483E-1,-2.773338E-1,2.0126832E-1,4.1407973E-2,-4.986022E-2,-2.8743863E-2,-1.5807228E-2,-2.3581316E-3,-0E0,1.3483196E-2],"categories":[],"categories_nodes":[],"categories_segments":[],"categories_sizes":[],"default_left":[0,0,0,0,0,0,0,0,0,0,0,0,0,0,0,0,0,0,0,0,0,0,0,0,0,0,0,0,0,0,0,0,0,0,0,0,0,0,0],"id":22,"left_children":[1,3,5,7,9,11,13,15,17,19,21,23,25,-1,-1,-1,-1,-1,-1,-1,27,29,31,-1,-1,-1,-1,-1,-1,33,35,37,-1,-1,-1,-1,-1,-1,-1],"loss_changes":[2.0191504E4,3.7977153E3,1.8139287E3,7.1258496E2,3.195915E2,1.637323E2,7.211914E0,9.972266E1,9.3543945E1,4.0404602E1,2.904102E1,9.901611E0,9.4210205E0,0E0,0E0,0E0,0E0,0E0,0E0,0E0,4.416809E-1,3.2334137E0,3.6387634E0,0E0,0E0,0E0,0E0,0E0,0E0,1.18974686E-1,1.0062218E-1,2.8060055E-1,0E0,0E0,0E0,0E0,0E0,0E0,0E0],"parents":[2147483647,0,0,1,1,2,2,3,3,4,4,5,5,6,6,7,7,8,8,9,9,10,10,11,11,12,12,20,20,21,21,22,22,29,29,30,30,31,31],"right_children":[2,4,6,8,10,12,14,16,18,20,22,24,26,-1,-1,-1,-1,-1,-1,-1,28,30,32,-1,-1,-1,-1,-1,-1,34,36,38,-1,-1,-1,-1,-1,-1,-1],"split_conditions":[-3.2459162E-2,-6.0122055E-1,5.3549564E-1,-1.0712785E0,-2.876109E-1,1.8781292E-1,7.6947284E-1,-1.2996544E0,-8.1807107E-1,-4.3570217E-1,-1.649517E-1,6.982389E-2,3.611476E-1,3.937021E-1,5.070073E-1,-7.291516E-1,-4.9909613E-1,-3.9706072E-1,-2.8357494E-1,-1.8214713E-1,-3.6097887E-1,-2.1476924E-1,-1.20497465E-1,9.217199E-2,1.5185377E-1,2.134E-1,2.978871E-1,-1.1458476E-1,-7.7965885E-2,-2.3442493E-1,-1.792237E-1,-1.5507579E-1,4.1407973E-2,-4.986022E-2,-2.8743863E-2,-1.5807228E-2,-2.3581316E-3,-0E0,1.3483196E-2],"split_indices":[20,20,20,20,20,20,20,20,20,20,20,20,20,0,0,0,0,0,0,0,20,20,20,0,0,0,0,0,0,20,20,20,0,0,0,0,0,0,0],"split_type":[0,0,0,0,0,0,0,0,0,0,0,0,0,0,0,0,0,0,0,0,0,0,0,0,0,0,0,0,0,0,0,0,0,0,0,0,0,0,0],"sum_hessian":[5.4E2,3.15E2,2.25E2,1.58E2,1.57E2,9.4E1,1.31E2,5E1,1.08E2,7.8E1,7.9E1,4.4E1,5E1,2.4E1,1.07E2,1.5E1,3.5E1,5.4E1,5.4E1,4E1,3.8E1,4E1,3.9E1,2.3E1,2.1E1,2.5E1,2.5E1,2.4E1,1.4E1,2.4E1,1.6E1,1.9E1,2E1,1.6E1,8E0,1.3E1,3E0,5E0,1.4E1],"tree_param":{"num_deleted":"0","num_feature":"24","num_nodes":"39","size_leaf_vector":"1"}},{"base_weights":[-1.6734944E-1,7.235324E0,-4.707747E0,8.554734E0,3.2389884E0,-1.2902434E0,-7.7068057E0,4.6878228E-1,6.535243E0,4.5820603E0,2.2424257E0,3.221822E-1,-2.375087E0,-6.0125747E0,-1.01197605E1,3.8888034E-1,4.9128814E0,2.4290775E-1,1.0500486E-1,2.5855694E0,1.2534193E-2,1.371753E0,-4.8465294E-1,-1.1375787E0,-2.9652822E0,-2.5924897E-1,-3.3864757E-1,-4.571271E-1,-6.6736597E-1,2.6736456E-1,1.539851E-1,1.5986238E-1,1.0312839E-1,1.8602436E0,8.5233915E-1,-1.5456174E-1,-1.383452E0,3.571786E-1,-1.4866796E0,-1.13012604E-1,-1.8092935E-1,1.1057577E-1,5.033142E-2,4.96594E-2,7.824783E-3,8.916321E-3,-2.0295689E-2,-3.118048E-2,-8.847061E-2,-0E0,3.0379374E-2,-4.0074125E-2,-1.02927126E-1],"categories":[],"categories_nodes":[],"categories_segments":[],"categories_sizes":[],"default_left":[0,0,0,0,0,0,0,0,0,0,0,0,0,0,0,0,0,0,0,0,0,0,0,0,0,0,0,0,0,0,0,0,0,0,0,0,0,0,0,0,0,0,0,0,0,0,0,0,0,0,0,0,0],"id":23,"left_children":[1,3,5,7,9,11,13,-1,15,17,19,21,23,25,27,-1,29,-1,-1,31,-1,33,35,37,39,-1,-1,-1,-1,-1,-1,-1,-1,41,43,45,47,49,51,-1,-1,-1,-1,-1,-1,-1,-1,-1,-1,-1,-1,-1,-1],"loss_changes":[1.8654346E4,1.0836738E3,3.5149136E3,1.9907324E2,6.1319214E1,2.8434567E2,6.8566406E2,0E0,5.928296E1,4.177185E0,2.1622192E1,5.6644352E1,6.706256E1,3.290747E1,1.0912109E2,0E0,1.8016968E0,0E0,0E0,1.8369141E0,0E0,5.50132E0,1.0906425E1,1.7864052E1,2.117218E1,0E0,0E0,0E0,0E0,0E0,0E0,0E0,0E0,1.6499214E0,1.2977409E0,2.521635E0,1.589962E0,5.836141E-1,8.643761E0,0E0,0E0,0E0,0E0,0E0,0E0,0E0,0E0,0E0,0E0,0E0,0E0,0E0,0E0],"parents":[2147483647,0,0,1,1,2,2,3,3,4,4,5,5,6,6,8,8,9,9,10,10,11,11,12,12,13,13,14,14,16,16,19,19,21,21,22,22,23,23,24,24,33,33,34,34,35,35,36,36,37,37,38,38],"right_children":[2,4,6,8,10,12,14,-1,16,18,20,22,24,26,28,-1,30,-1,-1,32,-1,34,36,38,40,-1,-1,-1,-1,-1,-1,-1,-1,42,44,46,48,50,52,-1,-1,-1,-1,-1,-1,-1,-1,-1,-1,-1,-1,-1,-1],"split_conditions":[-3.0640435E-1,-4.70728E-1,4.9652702E-1,-7.4111784E-1,-6.318381E-1,3.5009086E-2,1.1465354E0,4.6878228E-1,-8.944128E-1,1.4497594E-2,1.09175764E-1,-2.0562914E-1,-1.4172138E-1,8.252254E-1,1.9821132E0,3.8888034E-1,-5.246202E-1,2.4290775E-1,1.0500486E-1,-2.4586737E-1,1.2534193E-2,-5.393697E-1,5.068241E-1,-6.979556E-1,2.6868904E-1,-2.5924897E-1,-3.3864757E-1,-4.571271E-1,-6.6736597E-1,2.6736456E-1,1.539851E-1,1.5986238E-1,1.0312839E-1,7.1176195E-1,-4.60917E-2,-1.6275984E-1,-2.0794946E-1,1.1832927E0,2.234994E-1,-1.13012604E-1,-1.8092935E-1,1.1057577E-1,5.033142E-2,4.96594E-2,7.824783E-3,8.916321E-3,-2.0295689E-2,-3.118048E-2,-8.847061E-2,-0E0,3.0379374E-2,-4.0074125E-2,-1.02927126E-1],"split_indices":[19,17,19,19,19,19,19,0,17,17,17,17,17,19,19,0,19,0,0,17,0,17,17,17,19,0,0,0,0,0,0,0,0,16,19,19,19,4,19,0,0,0,0,0,0,0,0,0,0,0,0,0,0],"split_type":[0,0,0,0,0,0,0,0,0,0,0,0,0,0,0,0,0,0,0,0,0,0,0,0,0,0,0,0,0,0,0,0,0,0,0,0,0,0,0,0,0,0,0,0,0,0,0,0,0,0,0,0,0],"sum_hessian":[5.53E2,2.1E2,3.43E2,1.57E2,5.3E1,1.61E2,1.82E2,1.09E2,4.8E1,2.1E1,3.2E1,6.5E1,9.6E1,1.09E2,7.3E1,2.5E1,2.3E1,1.8E1,3E0,2.7E1,5E0,2.8E1,3.7E1,3.2E1,6.4E1,5.6E1,5.3E1,5.9E1,1.4E1,1.7E1,6E0,1E1,1.7E1,1.3E1,1.5E1,2.8E1,9E0,6E0,2.6E1,3.3E1,3.1E1,8E0,5E0,1.2E1,3E0,1.2E1,1.6E1,4E0,5E0,3E0,3E0,1.3E1,1.3E1],"tree_param":{"num_deleted":"0","num_feature":"24","num_nodes":"53","size_leaf_vector":"1"}},{"base_weights":[2.1574062E-1,-4.553654E0,6.752602E0,-7.3363194E0,-1.4657679E0,3.6037824E0,8.758551E0,-9.461353E0,-5.5843105E0,-2.6737542E0,-1.2049822E-1,2.1486795E0,4.6798487E0,3.545563E-1,4.563044E-1,-5.987057E-1,-4.2190358E-1,-3.1227922E-1,-2.4511711E-1,-1.6665165E-1,-9.6432485E-2,-7.087275E-1,4.3731102E-1,7.7423826E-2,1.3482346E-1,1.8507224E-1,2.691357E-1,-4.5459993E-2,-3.2161376E-1,7.914343E-2,6.631098E-1,-7.911399E-3,-2.059373E-2,-1.2735272E-3,8.722551E-3,1.8173305E-2,3.826186E-2],"categories":[],"categories_nodes":[],"categories_segments":[],"categories_sizes":[],"default_left":[0,0,0,0,0,0,0,0,0,0,0,0,0,0,0,0,0,0,0,0,0,0,0,0,0,0,0,0,0,0,0,0,0,0,0,0,0],"id":24,"left_children":[1,3,5,7,9,11,13,15,17,19,21,23,25,-1,-1,-1,-1,-1,-1,-1,-1,27,29,-1,-1,-1,-1,-1,31,33,35,-1,-1,-1,-1,-1,-1],"loss_changes":[1.7147072E4,2.7207983E3,1.4325986E3,5.6741406E2,2.464086E2,1.3331396E2,2.0075195E1,8.7194336E1,1.0658447E1,3.2344177E1,2.4289816E1,8.88028E0,1.492749E1,0E0,0E0,0E0,0E0,0E0,0E0,0E0,0E0,2.3783073E0,2.946498E0,0E0,0E0,0E0,0E0,0E0,8.428252E-2,1.7886952E-1,3.1283474E-1,0E0,0E0,0E0,0E0,0E0,0E0],"parents":[2147483647,0,0,1,1,2,2,3,3,4,4,5,5,6,6,7,7,8,8,9,9,10,10,11,11,12,12,21,21,22,22,28,28,29,29,30,30],"right_children":[2,4,6,8,10,12,14,16,18,20,22,24,26,-1,-1,-1,-1,-1,-1,-1,-1,28,30,-1,-1,-1,-1,-1,32,34,36,-1,-1,-1,-1,-1,-1],"split_conditions":[-5.1807135E-2,-6.0122055E-1,4.957813E-1,-9.413937E-1,-3.1189615E-1,1.7687699E-1,7.178841E-1,-1.2603251E0,-7.707309E-1,-4.2659476E-1,-1.792237E-1,6.982389E-2,3.611476E-1,3.545563E-1,4.563044E-1,-5.987057E-1,-4.2190358E-1,-3.1227922E-1,-2.4511711E-1,-1.6665165E-1,-9.6432485E-2,-2.2785184E-1,-1.3014299E-1,7.7423826E-2,1.3482346E-1,1.8507224E-1,2.691357E-1,-4.5459993E-2,5.358192E-1,-1.5507579E-1,-1.03054225E-1,-7.911399E-3,-2.059373E-2,-1.2735272E-3,8.722551E-3,1.8173305E-2,3.826186E-2],"split_indices":[20,20,20,20,20,20,20,20,20,20,20,20,20,0,0,0,0,0,0,0,0,20,20,0,0,0,0,0,12,20,20,0,0,0,0,0,0],"split_type":[0,0,0,0,0,0,0,0,0,0,0,0,0,0,0,0,0,0,0,0,0,0,0,0,0,0,0,0,0,0,0,0,0,0,0,0,0],"sum_hessian":[5.48E2,3.17E2,2.31E2,1.66E2,1.51E2,9.1E1,1.4E2,7.3E1,9.3E1,7.9E1,7.2E1,4E1,5.1E1,2.9E1,1.11E2,1.8E1,5.5E1,4.3E1,5E1,4E1,3.9E1,3.5E1,3.7E1,2.1E1,1.9E1,2.4E1,2.7E1,2.2E1,1.3E1,1.5E1,2.2E1,6E0,7E0,7E0,8E0,7E0,1.5E1],"tree_param":{"num_deleted":"0","num_feature":"24","num_nodes":"37","size_leaf_vector":"1"}},{"base_weights":[4.4555727E-2,-4.5077667E0,6.1595626E0,-7.5086517E0,-1.9977939E0,3.1822522E0,8.362719E0,-6.6236005E0,-5.547426E-1,-3.400157E0,-6.191308E-1,1.8589182E0,4.467176E0,3.251488E-1,4.3236908E-1,-2.7975804E-1,-3.7946555E-1,-2.0746718E-1,-1.2942241E-1,-1.249538E0,1.1369484E-1,1.2540107E0,1.1844347E-1,1.8108986E-1,2.54039E-1,-7.572397E-2,-4.160096E-2,-2.1795647E-1,4.0149185E-1,4.1570783E-2,6.950427E-2,-1.4712274E-2,-9.978049E-4,8.511692E-3,2.7929772E-2],"categories":[],"categories_nodes":[],"categories_segments":[],"categories_sizes":[],"default_left":[0,0,0,0,0,0,0,0,0,0,0,0,0,0,0,0,0,0,0,0,0,0,0,0,0,0,0,0,0,0,0,0,0,0,0],"id":25,"left_children":[1,3,5,7,9,11,13,15,-1,17,19,21,23,-1,-1,-1,-1,-1,-1,25,27,29,-1,-1,-1,-1,-1,31,33,-1,-1,-1,-1,-1,-1],"loss_changes":[1.5394221E4,2.3717358E3,1.5202705E3,3.8179248E2,3.339021E2,1.6450232E2,1.3720703E1,7.3413086E1,0E0,4.0884277E1,4.1371746E1,1.2707733E1,7.1833496E0,0E0,0E0,0E0,0E0,0E0,0E0,3.8149338E0,4.114688E0,1.1722565E-1,0E0,0E0,0E0,0E0,0E0,2.6481295E-1,6.6764855E-1,0E0,0E0,0E0,0E0,0E0,0E0],"parents":[2147483647,0,0,1,1,2,2,3,3,4,4,5,5,6,6,7,7,9,9,10,10,11,11,12,12,19,19,20,20,21,21,27,27,28,28],"right_children":[2,4,6,8,10,12,14,16,-1,18,20,22,24,-1,-1,-1,-1,-1,-1,26,28,30,-1,-1,-1,-1,-1,32,34,-1,-1,-1,-1,-1,-1],"split_conditions":[-7.4611016E-2,-7.0409E-1,5.3549564E-1,1.7407012E0,-3.8813475E-1,1.7687699E-1,6.9898564E-1,1.0412077E0,-5.547426E-1,-5.5101883E-1,-2.1958514E-1,4.3128356E-2,3.396419E-1,3.251488E-1,4.3236908E-1,-2.7975804E-1,-3.7946555E-1,-2.0746718E-1,-1.2942241E-1,-2.876109E-1,-1.5507579E-1,-3.2459162E-2,1.1844347E-1,1.8108986E-1,2.54039E-1,-7.572397E-2,-4.160096E-2,-1.792237E-1,-1.23202376E-1,4.1570783E-2,6.950427E-2,-1.4712274E-2,-9.978049E-4,8.511692E-3,2.7929772E-2],"split_indices":[20,20,20,19,20,20,20,19,0,20,20,20,20,0,0,0,0,0,0,20,20,20,0,0,0,0,0,20,20,0,0,0,0,0,0],"split_type":[0,0,0,0,0,0,0,0,0,0,0,0,0,0,0,0,0,0,0,0,0,0,0,0,0,0,0,0,0,0,0,0,0,0,0],"sum_hessian":[5.51E2,3.16E2,2.35E2,1.43E2,1.73E2,1.01E2,1.34E2,1.17E2,2.6E1,8.5E1,8.8E1,5.1E1,5E1,2.1E1,1.13E2,6E1,5.7E1,4.2E1,4.3E1,4.7E1,4.1E1,2.5E1,2.6E1,2.4E1,2.6E1,2.7E1,2E1,1.9E1,2.2E1,8E0,1.7E1,1.3E1,6E0,1E1,1.2E1],"tree_param":{"num_deleted":"0","num_feature":"24","num_nodes":"35","size_leaf_vector":"1"}},{"base_weights":[-7.160773E-2,-4.259326E0,5.7873144E0,-7.2363477E0,-1.824977E0,3.1082282E0,7.9003897E0,-9.745712E0,-6.060439E0,-3.1164596E0,-5.4097146E-1,1.707319E0,4.2681265E0,3.142324E-1,4.1121608E-1,-5.994238E-1,-4.1854498E-1,-3.3565566E-1,-2.4934447E-1,-1.8831609E-1,-1.17179826E-1,-1.2035683E0,3.418363E-2,5.2401554E-2,1.0978329E-1,1.629044E-1,2.4045591E-1,-7.114427E-2,-4.1936256E-2,-2.6250452E-1,3.4597614E-1,-2.148332E-2,-4.6664863E-3,7.5784787E-3,2.3343435E-2],"categories":[],"categories_nodes":[],"categories_segments":[],"categories_sizes":[],"default_left":[0,0,0,0,0,0,0,0,0,0,0,0,0,0,0,0,0,0,0,0,0,0,0,0,0,0,0,0,0,0,0,0,0,0,0],"id":26,"left_children":[1,3,5,7,9,11,13,15,17,19,21,23,25,-1,-1,-1,-1,-1,-1,-1,-1,27,29,-1,-1,-1,-1,-1,-1,31,33,-1,-1,-1,-1],"loss_changes":[1.3126462E4,2.2469858E3,1.236771E3,3.5246582E2,2.8482928E2,1.5460657E2,1.1762695E1,3.0195068E1,3.4018555E1,3.3756104E1,3.3694527E1,1.2506668E1,1.3031555E1,0E0,0E0,0E0,0E0,0E0,0E0,0E0,0E0,1.8610992E0,4.539414E0,0E0,0E0,0E0,0E0,0E0,0E0,6.145891E-1,4.314487E-1,0E0,0E0,0E0,0E0],"parents":[2147483647,0,0,1,1,2,2,3,3,4,4,5,5,6,6,7,7,8,8,9,9,10,10,11,11,12,12,21,21,22,22,29,29,30,30],"right_children":[2,4,6,8,10,12,14,16,18,20,22,24,26,-1,-1,-1,-1,-1,-1,-1,-1,28,30,-1,-1,-1,-1,-1,-1,32,34,-1,-1,-1,-1],"split_conditions":[-7.9627834E-2,-7.0409E-1,5.3549564E-1,-1.1434687E0,-3.8813475E-1,1.4653258E-1,7.178841E-1,-1.2996544E0,-8.3388245E-1,-5.2363944E-1,-2.3442493E-1,2.7360342E-2,2.931458E-1,3.142324E-1,4.1121608E-1,-5.994238E-1,-4.1854498E-1,-3.3565566E-1,-2.4934447E-1,-1.8831609E-1,-1.17179826E-1,-2.876109E-1,-1.5507579E-1,5.2401554E-2,1.0978329E-1,1.629044E-1,2.4045591E-1,-7.114427E-2,-4.1936256E-2,-2.0437251E-1,-1.3014299E-1,-2.148332E-2,-4.6664863E-3,7.5784787E-3,2.3343435E-2],"split_indices":[20,20,20,20,20,20,20,20,20,20,20,20,20,0,0,0,0,0,0,0,0,20,20,0,0,0,0,0,0,20,20,0,0,0,0],"split_type":[0,0,0,0,0,0,0,0,0,0,0,0,0,0,0,0,0,0,0,0,0,0,0,0,0,0,0,0,0,0,0,0,0,0,0],"sum_hessian":[5.33E2,3.11E2,2.22E2,1.39E2,1.72E2,9.9E1,1.23E2,4.2E1,9.7E1,8.5E1,8.7E1,4.6E1,5.3E1,2.4E1,9.9E1,1.3E1,2.9E1,5.7E1,4E1,4.4E1,4.1E1,4E1,4.7E1,2.1E1,2.5E1,2.1E1,3.2E1,2.3E1,1.7E1,2.4E1,2.3E1,1.1E1,1.3E1,1E1,1.3E1],"tree_param":{"num_deleted":"0","num_feature":"24","num_nodes":"35","size_leaf_vector":"1"}},{"base_weights":[-1.4444323E-1,-4.14856E0,5.211248E0,-6.338515E0,-1.4120287E0,2.1920216E0,7.2432265E0,-8.008554E0,-4.9239516E0,-2.5856776E0,-5.892693E-1,1.252931E0,1.6120955E-1,2.4846978E-1,3.841005E-1,-4.8177418E-1,-3.5460165E-1,-2.7346465E-1,-2.087276E-1,-1.483063E-1,-1.010608E-1,-1.0989314E0,-5.172495E-2,3.894191E-2,8.0748945E-2,-6.596472E-2,-3.9499808E-2,-2.9555252E-1,2.3845436E-1,-2.0815125E-2,-6.588866E-3,3.81855E-3,1.5608151E-2],"categories":[],"categories_nodes":[],"categories_segments":[],"categories_sizes":[],"default_left":[0,0,0,0,0,0,0,0,0,0,0,0,0,0,0,0,0,0,0,0,0,0,0,0,0,0,0,0,0,0,0,0,0],"id":27,"left_children":[1,3,5,7,9,11,13,15,17,19,21,23,-1,-1,-1,-1,-1,-1,-1,-1,-1,25,27,-1,-1,-1,-1,29,31,-1,-1,-1,-1],"loss_changes":[1.2030608E4,1.9139893E3,1.4555796E3,3.7977588E2,1.3720966E2,9.050409E1,1.032334E2,4.928125E1,1.6662842E1,6.176239E0,2.3389164E1,7.5999527E0,0E0,0E0,0E0,0E0,0E0,0E0,0E0,0E0,0E0,1.7422638E0,3.1185951E0,0E0,0E0,0E0,0E0,3.6495328E-1,1.7624533E-1,0E0,0E0,0E0,0E0],"parents":[2147483647,0,0,1,1,2,2,3,3,4,4,5,5,6,6,7,7,8,8,9,9,10,10,11,11,21,21,22,22,27,27,28,28],"right_children":[2,4,6,8,10,12,14,16,18,20,22,24,-1,-1,-1,-1,-1,-1,-1,-1,-1,26,28,-1,-1,-1,-1,30,32,-1,-1,-1,-1],"split_conditions":[-1.03054225E-1,-6.0122055E-1,3.9287835E-1,-9.5381194E-1,-3.8298878E-1,1.1078257E-1,5.7538587E-1,-1.2383145E0,-7.632316E-1,-4.6638793E-1,-2.3442493E-1,-1.9244535E-2,1.6120955E-1,2.4846978E-1,3.841005E-1,-4.8177418E-1,-3.5460165E-1,-2.7346465E-1,-2.087276E-1,-1.483063E-1,-1.010608E-1,-2.876109E-1,-1.5900666E-1,3.894191E-2,8.0748945E-2,-6.596472E-2,-3.9499808E-2,-2.0437251E-1,-1.4710638E-1,-2.0815125E-2,-6.588866E-3,3.81855E-3,1.5608151E-2],"split_indices":[20,20,20,20,20,20,20,20,20,20,20,20,0,0,0,0,0,0,0,0,0,20,20,0,0,0,0,20,20,0,0,0,0],"split_type":[0,0,0,0,0,0,0,0,0,0,0,0,0,0,0,0,0,0,0,0,0,0,0,0,0,0,0,0,0,0,0,0,0],"sum_hessian":[5.59E2,3.2E2,2.39E2,1.77E2,1.43E2,9.7E1,1.42E2,7.9E1,9.8E1,5.8E1,8.5E1,5.2E1,4.5E1,2.5E1,1.17E2,2.5E1,5.4E1,5.3E1,4.5E1,3.2E1,2.6E1,4.3E1,4.2E1,2.4E1,2.8E1,2.3E1,2E1,2.3E1,1.9E1,1.2E1,1.1E1,7E0,1.2E1],"tree_param":{"num_deleted":"0","num_feature":"24","num_nodes":"33","size_leaf_vector":"1"}},{"base_weights":[-2.3736669E-1,5.523234E0,-3.5480423E0,6.9795084E0,3.1806862E0,-9.3776125E-1,-6.1067615E0,3.6361334E-1,2.3860393E-1,4.082997E0,1.8508478E0,2.2978315E-1,-1.8411787E0,-5.0251727E0,-8.717175E0,2.2256973E-1,1.1692329E-1,2.3136873E0,5.449484E-1,1.2542518E0,-3.0553624E-1,-9.359504E-1,-2.3208852E0,-2.0804827E-1,-2.8843948E-1,-3.760058E-1,-5.722972E-1,1.6176763E-1,9.105841E-2,4.558155E-2,-0E0,8.781803E-2,8.79232E-1,-6.690365E-2,-1.1364242E0,1.0171815E-2,-1.1359627E0,-7.768191E-2,-1.3507651E-1,5.4521095E-2,2.464203E-2,1.0171558E-2,-1.9083241E-2,-6.748926E-2,-2.0029811E-2,-3.456123E-2,-7.938594E-2],"categories":[],"categories_nodes":[],"categories_segments":[],"categories_sizes":[],"default_left":[0,0,0,0,0,0,0,0,0,0,0,0,0,0,0,0,0,0,0,0,0,0,0,0,0,0,0,0,0,0,0,0,0,0,0,0,0,0,0,0,0,0,0,0,0,0,0],"id":28,"left_children":[1,3,5,7,9,11,13,-1,-1,15,17,19,21,23,25,-1,-1,27,29,31,33,35,37,-1,-1,-1,-1,-1,-1,-1,-1,-1,39,41,43,-1,45,-1,-1,-1,-1,-1,-1,-1,-1,-1,-1],"loss_changes":[1.0241712E4,6.454175E2,2.2710996E3,4.1640625E1,8.424396E1,1.7989679E2,4.4044482E2,0E0,0E0,1.7832214E1,1.8399208E1,4.1609436E1,3.9189484E1,5.469043E1,7.2086914E1,0E0,0E0,4.4967194E0,2.016739E0,3.0880127E0,9.717483E0,8.300549E0,1.3484314E1,0E0,0E0,0E0,0E0,0E0,0E0,0E0,0E0,0E0,6.915035E-1,3.4991014E0,1.0112104E0,0E0,4.70203E0,0E0,0E0,0E0,0E0,0E0,0E0,0E0,0E0,0E0,0E0],"parents":[2147483647,0,0,1,1,2,2,3,3,4,4,5,5,6,6,9,9,10,10,11,11,12,12,13,13,14,14,17,17,18,18,19,19,20,20,21,21,22,22,32,32,33,33,34,34,36,36],"right_children":[2,4,6,8,10,12,14,-1,-1,16,18,20,22,24,26,-1,-1,28,30,32,34,36,38,-1,-1,-1,-1,-1,-1,-1,-1,-1,40,42,44,-1,46,-1,-1,-1,-1,-1,-1,-1,-1,-1,-1],"split_conditions":[-2.804589E-1,-7.168912E-1,4.8776403E-1,-6.2341875E-1,-2.600691E-1,3.5009086E-2,1.4015216E0,3.6361334E-1,2.3860393E-1,-5.246202E-1,-4.333819E-1,-2.600691E-1,-3.7575398E-2,8.613084E-1,2.0979223E0,2.2256973E-1,1.1692329E-1,-7.744515E-1,3.1036687E-1,-1.8406591E-1,4.121459E-1,-6.979556E-1,1.6490766E-1,-2.0804827E-1,-2.8843948E-1,-3.760058E-1,-5.722972E-1,1.6176763E-1,9.105841E-2,4.558155E-2,-0E0,8.781803E-2,-5.2516794E-1,-1.3217528E-1,1.0006114E0,1.0171815E-2,2.3930721E-1,-7.768191E-2,-1.3507651E-1,5.4521095E-2,2.464203E-2,1.0171558E-2,-1.9083241E-2,-6.748926E-2,-2.0029811E-2,-3.456123E-2,-7.938594E-2],"split_indices":[19,17,19,19,17,19,19,0,0,19,19,17,17,19,19,0,0,19,17,19,17,17,19,0,0,0,0,0,0,0,0,0,17,19,22,0,19,0,0,0,0,0,0,0,0,0,0],"split_type":[0,0,0,0,0,0,0,0,0,0,0,0,0,0,0,0,0,0,0,0,0,0,0,0,0,0,0,0,0,0,0,0,0,0,0,0,0,0,0,0,0,0,0,0,0,0,0],"sum_hessian":[5.35E2,1.95E2,3.4E2,1.19E2,7.6E1,1.69E2,1.71E2,1.03E2,1.6E1,4.4E1,3.2E1,7.4E1,9.5E1,1.23E2,4.8E1,3.5E1,9E0,2.3E1,9E0,2.5E1,4.9E1,3.4E1,6.1E1,6E1,6.3E1,3.6E1,1.2E1,6E0,1.7E1,5E0,4E0,9E0,1.6E1,3.9E1,1E1,5E0,2.9E1,2.2E1,3.9E1,9E0,7E0,2.1E1,1.8E1,7E0,3E0,1.6E1,1.3E1],"tree_param":{"num_deleted":"0","num_feature":"24","num_nodes":"47","size_leaf_vector":"1"}},{"base_weights":[4.8785266E-2,-3.626573E0,4.9547405E0,-6.4874043E0,-1.6943243E0,2.5838552E0,6.8453474E0,-4.7211036E-1,-5.61501E0,-2.9521983E0,-4.440442E-1,1.537478E0,3.6188653E0,2.700772E-1,3.553362E-1,-3.1684306E-1,-2.3397057E-1,-1.779352E-1,-1.1264855E-1,-9.556918E-1,1.4346853E-1,4.9558945E-2,9.853993E-2,1.490806E-1,2.0919171E-1,-6.324794E-2,-5.794558E-1,-5.7142273E-2,3.8022098E-1,-3.0818446E-2,-1.4426484E-2,-6.556832E-3,3.8931444E-3,7.991524E-3,2.1642681E-2],"categories":[],"categories_nodes":[],"categories_segments":[],"categories_sizes":[],"default_left":[0,0,0,0,0,0,0,0,0,0,0,0,0,0,0,0,0,0,0,0,0,0,0,0,0,0,0,0,0,0,0,0,0,0,0],"id":29,"left_children":[1,3,5,7,9,11,13,-1,15,17,19,21,23,-1,-1,-1,-1,-1,-1,25,27,-1,-1,-1,-1,-1,29,31,33,-1,-1,-1,-1,-1,-1],"loss_changes":[9.809013E3,1.7073472E3,1.0257715E3,2.676958E2,2.9244336E2,1.076366E2,9.043457E0,0E0,3.6106445E1,3.0841248E1,2.8775291E1,1.0533417E1,5.5303345E0,0E0,0E0,0E0,0E0,0E0,0E0,5.016796E0,2.191314E0,0E0,0E0,0E0,0E0,0E0,1.4400482E-4,2.6527858E-1,1.1514282E-1,0E0,0E0,0E0,0E0,0E0,0E0],"parents":[2147483647,0,0,1,1,2,2,3,3,4,4,5,5,6,6,8,8,9,9,10,10,11,11,12,12,19,19,20,20,26,26,27,27,28,28],"right_children":[2,4,6,8,10,12,14,-1,16,18,20,22,24,-1,-1,-1,-1,-1,-1,26,28,-1,-1,-1,-1,-1,30,32,34,-1,-1,-1,-1,-1,-1],"split_conditions":[-7.4611016E-2,-7.3990446E-1,5.3549564E-1,-1.2383145E0,-3.9065003E-1,1.7687699E-1,7.178841E-1,-4.7211036E-1,-9.175661E-1,-5.6908834E-1,-2.0917886E-1,5.3386632E-2,3.611476E-1,2.700772E-1,3.553362E-1,-3.1684306E-1,-2.3397057E-1,-1.779352E-1,-1.1264855E-1,-2.7735126E-1,-1.4710638E-1,4.9558945E-2,9.853993E-2,1.490806E-1,2.0919171E-1,-6.324794E-2,1.137619E0,-1.5900666E-1,-1.3014299E-1,-3.0818446E-2,-1.4426484E-2,-6.556832E-3,3.8931444E-3,7.991524E-3,2.1642681E-2],"split_indices":[20,20,20,20,20,20,20,0,20,20,20,20,20,0,0,0,0,0,0,20,20,0,0,0,0,0,14,20,20,0,0,0,0,0,0],"split_type":[0,0,0,0,0,0,0,0,0,0,0,0,0,0,0,0,0,0,0,0,0,0,0,0,0,0,0,0,0,0,0,0,0,0,0],"sum_hessian":[5.42E2,3.1E2,2.32E2,1.24E2,1.86E2,1.04E2,1.28E2,2.6E1,9.8E1,9.2E1,9.4E1,5.3E1,5.1E1,2.3E1,1.05E2,5.2E1,4.6E1,4.7E1,4.5E1,5E1,4.4E1,2.5E1,2.8E1,2.7E1,2.4E1,2.6E1,2.4E1,2.4E1,2E1,2E1,4E0,1.6E1,8E0,5E0,1.5E1],"tree_param":{"num_deleted":"0","num_feature":"24","num_nodes":"35","size_leaf_vector":"1"}},{"base_weights":[2.5031973E-2,4.8514204E0,-3.2846816E0,3.2508644E-1,2.8710449E0,-9.967139E-1,-5.6361036E0,3.838251E0,1.4939197E0,2.1118695E-1,-1.7931898E0,-4.494764E0,-7.677986E0,2.3493898E-1,2.789079E0,2.0510435E0,6.18327E-1,1.0447327E0,-3.607757E-1,-1.3617438E0,-1.3456492E-1,-1.9228534E-1,-2.5526938E-1,-3.3803853E-1,-5.444955E-1,1.5684399E-1,9.98819E-2,1.2580404E-1,7.839126E-2,4.5097932E-2,1.9185197E-1,1.3529814E0,5.772933E-1,-7.611E-2,-9.603549E-1,-4.6479827E-1,-1.6786124E0,1.4529153E-2,-0E0,8.2859375E-2,3.5541635E-2,3.534134E-2,1.0433716E-2,7.472714E-3,-1.3748594E-2,-5.8815695E-2,-1.7977891E-2,2.9248506E-2,-3.4517195E-2,-6.896655E-2,-1.1038802E-1],"categories":[],"categories_nodes":[],"categories_segments":[],"categories_sizes":[],"default_left":[0,0,0,0,0,0,0,0,0,0,0,0,0,0,0,0,0,0,0,0,0,0,0,0,0,0,0,0,0,0,0,0,0,0,0,0,0,0,0,0,0,0,0,0,0,0,0,0,0,0,0],"id":30,"left_children":[1,3,5,-1,7,9,11,13,15,17,19,21,23,-1,25,27,29,31,33,35,-1,-1,-1,-1,-1,-1,-1,-1,-1,-1,37,39,41,43,45,47,49,-1,-1,-1,-1,-1,-1,-1,-1,-1,-1,-1,-1,-1,-1],"loss_changes":[8.91359E3,7.222842E2,1.774492E3,0E0,1.3358905E2,1.6312572E2,3.4414062E2,4.12193E1,2.0416458E1,3.2864788E1,3.545334E1,2.1878418E1,9.253418E1,0E0,1.4781036E0,1.7141266E0,2.015851E0,3.06036E0,6.821126E0,1.9184647E1,0E0,0E0,0E0,0E0,0E0,0E0,0E0,0E0,0E0,0E0,1.753664E-1,1.710743E0,3.8168383E-1,1.3544754E0,1.110177E0,5.1497808E0,4.8309937E0,0E0,0E0,0E0,0E0,0E0,0E0,0E0,0E0,0E0,0E0,0E0,0E0,0E0,0E0],"parents":[2147483647,0,0,1,1,2,2,4,4,5,5,6,6,7,7,8,8,9,9,10,10,11,11,12,12,14,14,15,15,16,16,17,17,18,18,19,19,30,30,31,31,32,32,33,33,34,34,35,35,36,36],"right_children":[2,4,6,-1,8,10,12,14,16,18,20,22,24,-1,26,28,30,32,34,36,-1,-1,-1,-1,-1,-1,-1,-1,-1,-1,38,40,42,44,46,48,50,-1,-1,-1,-1,-1,-1,-1,-1,-1,-1,-1,-1,-1,-1],"split_conditions":[-2.6636943E-1,-8.5180765E-1,5.6611556E-1,3.2508644E-1,-2.7663776E-1,3.5009086E-2,1.345507E0,-6.421475E-1,-4.333819E-1,-2.7663776E-1,3.683467E-1,8.910339E-1,2.14105E0,2.3493898E-1,-4.0468732E-1,-6.512542E-1,2.1805565E-1,-1.15508325E-1,4.121459E-1,-2.5770214E-1,-1.3456492E-1,-1.9228534E-1,-2.5526938E-1,-3.3803853E-1,-5.444955E-1,1.5684399E-1,9.98819E-2,1.2580404E-1,7.839126E-2,4.5097932E-2,-3.522812E-1,-2.957325E-1,-4.517924E-1,1.4497594E-2,-2.5298193E-1,-8.589085E-1,6.5830916E-1,1.4529153E-2,-0E0,8.2859375E-2,3.5541635E-2,3.534134E-2,1.0433716E-2,7.472714E-3,-1.3748594E-2,-5.8815695E-2,-1.7977891E-2,2.9248506E-2,-3.4517195E-2,-6.896655E-2,-1.1038802E-1],"split_indices":[19,17,19,0,17,19,19,19,19,17,19,19,19,0,19,19,17,19,17,17,0,0,0,0,0,0,0,0,0,0,19,5,17,17,23,17,17,0,0,0,0,0,0,0,0,0,0,0,0,0,0],"split_type":[0,0,0,0,0,0,0,0,0,0,0,0,0,0,0,0,0,0,0,0,0,0,0,0,0,0,0,0,0,0,0,0,0,0,0,0,0,0,0,0,0,0,0,0,0,0,0,0,0,0,0],"sum_hessian":[5.56E2,2.26E2,3.3E2,1.22E2,1.04E2,1.68E2,1.62E2,6E1,4.4E1,6.7E1,1.01E2,1.06E2,5.6E1,3.1E1,2.9E1,2.6E1,1.8E1,2.7E1,4E1,7E1,3.1E1,5.5E1,5.1E1,4.6E1,1E1,1.8E1,1.1E1,1.1E1,1.5E1,1E1,8E0,1.5E1,1.2E1,2.8E1,1.2E1,1.9E1,5.1E1,5E0,3E0,9E0,6E0,8E0,4E0,1.3E1,1.5E1,8E0,4E0,3E0,1.6E1,3.5E1,1.6E1],"tree_param":{"num_deleted":"0","num_feature":"24","num_nodes":"51","size_leaf_vector":"1"}},{"base_weights":[-6.9979824E-2,-3.5914419E0,4.406575E0,-5.837968E0,-1.7497656E0,1.8608538E0,5.8790092E0,-4.6794525E-1,-5.2120934E0,-2.8661587E0,-6.748415E-1,1.0394541E0,1.3115284E-1,2.2116509E-1,3.2142055E-1,-2.1668239E-1,-2.9451323E-1,-1.6408831E-1,-1.0879059E-1,-1.1585721E0,-6.602772E-2,3.1859413E-2,6.476133E-2,-6.962262E-2,-4.426403E-2,-3.399754E-1,1.5879981E-1,-1.9830287E-2,-8.597554E-3,2.356186E-3,1.336267E-2],"categories":[],"categories_nodes":[],"categories_segments":[],"categories_sizes":[],"default_left":[0,0,0,0,0,0,0,0,0,0,0,0,0,0,0,0,0,0,0,0,0,0,0,0,0,0,0,0,0,0,0],"id":31,"left_children":[1,3,5,7,9,11,13,-1,15,17,19,21,-1,-1,-1,-1,-1,-1,-1,23,25,-1,-1,-1,-1,27,29,-1,-1,-1,-1],"loss_changes":[8.843595E3,1.2881616E3,9.141426E2,2.6047998E2,2.0651825E2,5.450592E1,9.524414E1,0E0,4.6131104E1,1.6701416E1,2.6306206E1,3.7143326E0,0E0,0E0,0E0,0E0,0E0,0E0,0E0,1.7353973E0,2.5973356E0,0E0,0E0,0E0,0E0,5.5737972E-2,2.3453677E-1,0E0,0E0,0E0,0E0],"parents":[2147483647,0,0,1,1,2,2,3,3,4,4,5,5,6,6,8,8,9,9,10,10,11,11,19,19,20,20,25,25,26,26],"right_children":[2,4,6,8,10,12,14,-1,16,18,20,22,-1,-1,-1,-1,-1,-1,-1,24,26,-1,-1,-1,-1,28,30,-1,-1,-1,-1],"split_conditions":[-1.03054225E-1,-7.4641997E-1,3.6905277E-1,-1.266798E0,-4.2659476E-1,1.1078257E-1,6.9898564E-1,-4.6794525E-1,1.1097652E0,-5.704758E-1,-2.5642487E-1,-1.9244535E-2,1.3115284E-1,2.2116509E-1,3.2142055E-1,-2.1668239E-1,-2.9451323E-1,-1.6408831E-1,-1.0879059E-1,-3.502753E-1,-1.792237E-1,3.1859413E-2,6.476133E-2,-6.962262E-2,-4.426403E-2,-2.0917886E-1,-1.4710638E-1,-1.9830287E-2,-8.597554E-3,2.356186E-3,1.336267E-2],"split_indices":[20,20,20,20,20,20,20,0,19,20,20,20,0,0,0,0,0,0,0,20,20,0,0,0,0,20,20,0,0,0,0],"split_type":[0,0,0,0,0,0,0,0,0,0,0,0,0,0,0,0,0,0,0,0,0,0,0,0,0,0,0,0,0,0,0],"sum_hessian":[5.59E2,3.13E2,2.46E2,1.4E2,1.73E2,9.1E1,1.55E2,1.9E1,1.21E2,8.4E1,8.9E1,4.5E1,4.6E1,4.5E1,1.1E2,5.6E1,6.5E1,5E1,3.4E1,4.9E1,4E1,1.9E1,2.6E1,2.4E1,2.5E1,1.8E1,2.2E1,1.2E1,6E0,1.2E1,1E1],"tree_param":{"num_deleted":"0","num_feature":"24","num_nodes":"31","size_leaf_vector":"1"}},{"base_weights":[-7.309387E-2,-3.1782691E0,4.2934384E0,-5.4371414E0,-1.3395303E0,2.2673337E0,5.7945223E0,-8.158996E0,-4.7499485E0,-2.33064E0,-3.7647516E-1,1.2984682E0,3.1500978E0,2.3223896E-1,3.071981E-1,-4.893952E-1,-3.309586E-1,-2.7086782E-1,-1.9870178E-1,-1.4052257E-1,-8.3888955E-2,-7.590667E-1,1.6441502E-1,9.5582044E-1,8.829438E-2,1.24890566E-1,1.8261465E-1,-5.0972994E-2,-5.3815997E-1,-1.1178034E-2,1.9393198E-2,2.8758867E-2,5.317731E-2,-3.087135E-2,-1.7643413E-2,-5.2545927E-3,5.1013874E-3],"categories":[],"categories_nodes":[],"categories_segments":[],"categories_sizes":[],"default_left":[0,0,0,0,0,0,0,0,0,0,0,0,0,0,0,0,0,0,0,0,0,0,0,0,0,0,0,0,0,0,0,0,0,0,0,0,0],"id":32,"left_children":[1,3,5,7,9,11,13,15,17,19,21,23,25,-1,-1,-1,-1,-1,-1,-1,-1,27,29,31,-1,-1,-1,-1,33,35,-1,-1,-1,-1,-1,-1,-1],"loss_changes":[7.308195E3,1.300384E3,6.6731885E2,2.2368652E2,1.6588818E2,7.842697E1,2.180957E1,1.2938232E0,3.7084717E1,2.177536E1,1.8808868E1,5.7276535E0,6.6410217E0,0E0,0E0,0E0,0E0,0E0,0E0,0E0,0E0,2.344305E0,1.5329756E0,4.545517E-1,0E0,0E0,0E0,0E0,1.4041424E-1,2.4492362E-1,0E0,0E0,0E0,0E0,0E0,0E0,0E0],"parents":[2147483647,0,0,1,1,2,2,3,3,4,4,5,5,6,6,7,7,8,8,9,9,10,10,11,11,12,12,21,21,22,22,23,23,28,28,29,29],"right_children":[2,4,6,8,10,12,14,16,18,20,22,24,26,-1,-1,-1,-1,-1,-1,-1,-1,28,30,32,-1,-1,-1,-1,34,36,-1,-1,-1,-1,-1,-1,-1],"split_conditions":[-7.4611016E-2,-7.116637E-1,4.957813E-1,-1.2383145E0,-3.8298878E-1,1.4653258E-1,7.6947284E-1,-1.3585752E0,-9.175661E-1,-5.335386E-1,-2.0437251E-1,6.982389E-2,3.611476E-1,2.3223896E-1,3.071981E-1,-4.893952E-1,-3.309586E-1,-2.7086782E-1,-1.9870178E-1,-1.4052257E-1,-8.3888955E-2,-2.876109E-1,-1.3014299E-1,-3.2459162E-2,8.829438E-2,1.24890566E-1,1.8261465E-1,-5.0972994E-2,-2.3442493E-1,-1.5900666E-1,1.9393198E-2,2.8758867E-2,5.317731E-2,-3.087135E-2,-1.7643413E-2,-5.2545927E-3,5.1013874E-3],"split_indices":[20,20,20,20,20,20,20,20,20,20,20,20,20,0,0,0,0,0,0,0,0,20,20,20,0,0,0,0,20,20,0,0,0,0,0,0,0],"split_type":[0,0,0,0,0,0,0,0,0,0,0,0,0,0,0,0,0,0,0,0,0,0,0,0,0,0,0,0,0,0,0,0,0,0,0,0,0],"sum_hessian":[5.37E2,3.14E2,2.23E2,1.4E2,1.74E2,9.6E1,1.27E2,2.6E1,1.14E2,8.5E1,8.9E1,4.7E1,4.9E1,3.3E1,9.4E1,1E1,1.6E1,5.8E1,5.6E1,4.7E1,3.8E1,5.2E1,3.7E1,2.9E1,1.8E1,2.4E1,2.5E1,2.2E1,3E1,2.1E1,1.6E1,8E0,2.1E1,1.9E1,1.1E1,1.2E1,9E0],"tree_param":{"num_deleted":"0","num_feature":"24","num_nodes":"37","size_leaf_vector":"1"}},{"base_weights":[-7.590035E-3,-3.1507025E0,3.8955803E0,-5.289331E0,-1.4727397E0,1.6629183E0,5.3424997E0,-4.469703E-1,-4.757743E0,-2.4815788E0,-6.64032E-1,9.51972E-1,2.366905E0,1.8740314E-1,2.8627604E-1,-2.7017105E-1,-1.960775E-1,-1.455798E-1,-9.804966E-2,-1.1120217E0,-2.0972149E-1,6.220193E-1,6.09261E-2,9.94801E-2,1.3512847E-1,-6.36014E-2,-3.935842E-2,-2.2411408E-2,6.3481648E-3,1.9458508E-2,3.5141032E-2,-5.8160727E-3,6.78536E-3],"categories":[],"categories_nodes":[],"categories_segments":[],"categories_sizes":[],"default_left":[0,0,0,0,0,0,0,0,0,0,0,0,0,0,0,0,0,0,0,0,0,0,0,0,0,0,0,0,0,0,0,0,0],"id":33,"left_children":[1,3,5,7,9,11,13,-1,15,17,19,21,23,-1,-1,-1,-1,-1,-1,25,27,29,-1,-1,-1,-1,-1,-1,31,-1,-1,-1,-1],"loss_changes":[6.820997E3,1.0968035E3,7.9157495E2,2.1804419E2,1.3999658E2,4.696405E1,6.919873E1,0E0,4.2666992E1,1.1040405E1,1.9580196E1,3.5433922E0,3.5946655E-1,0E0,0E0,0E0,0E0,0E0,0E0,1.3397255E0,2.623736E0,8.764744E-2,0E0,0E0,0E0,0E0,0E0,0E0,4.461717E-1,0E0,0E0,0E0,0E0],"parents":[2147483647,0,0,1,1,2,2,3,3,4,4,5,5,6,6,8,8,9,9,10,10,11,11,12,12,19,19,20,20,21,21,28,28],"right_children":[2,4,6,8,10,12,14,-1,16,18,20,22,24,-1,-1,-1,-1,-1,-1,26,28,30,-1,-1,-1,-1,-1,-1,32,-1,-1,-1,-1],"split_conditions":[-1.03054225E-1,-7.3188233E-1,3.9287835E-1,-1.2996544E0,-4.2659476E-1,1.1078257E-1,6.355029E-1,-4.469703E-1,-9.413937E-1,-5.837181E-1,-2.7028748E-1,-8.56778E-3,2.3729174E-1,1.8740314E-1,2.8627604E-1,-2.7017105E-1,-1.960775E-1,-1.455798E-1,-9.804966E-2,-3.502753E-1,-2.0917886E-1,-7.4611016E-2,6.09261E-2,9.94801E-2,1.3512847E-1,-6.36014E-2,-3.935842E-2,-2.2411408E-2,-1.5900666E-1,1.9458508E-2,3.5141032E-2,-5.8160727E-3,6.78536E-3],"split_indices":[20,20,20,20,20,20,20,0,20,20,20,20,20,0,0,0,0,0,0,20,20,20,0,0,0,0,0,0,20,0,0,0,0],"split_type":[0,0,0,0,0,0,0,0,0,0,0,0,0,0,0,0,0,0,0,0,0,0,0,0,0,0,0,0,0,0,0,0,0],"sum_hessian":[5.54E2,3.07E2,2.47E2,1.34E2,1.73E2,9.8E1,1.49E2,1.5E1,1.19E2,7.6E1,9.7E1,5E1,4.8E1,3.1E1,1.18E2,6.4E1,5.5E1,3.9E1,3.7E1,4.8E1,4.9E1,2.4E1,2.6E1,2.6E1,2.2E1,3E1,1.8E1,2.3E1,2.6E1,8E0,1.6E1,1.3E1,1.3E1],"tree_param":{"num_deleted":"0","num_feature":"24","num_nodes":"33","size_leaf_vector":"1"}},{"base_weights":[-4.742413E-2,-2.9721076E0,3.6825638E0,-5.105308E0,-1.3636973E0,1.4910566E0,4.9985714E0,-4.1090026E-1,-4.5256095E0,-2.2763886E0,-5.713674E-1,8.04012E-1,2.1285772E0,1.7297153E-1,2.715088E-1,-2.5417683E-1,-1.8706338E-1,-1.3559647E-1,-8.7320596E-2,-9.1033053E-1,-4.5255117E-2,2.4205636E-2,4.978222E-2,7.999041E-2,1.1533973E-1,-5.2309167E-2,-2.8914979E-2,-2.4750109E-1,1.4414132E-1,-4.870405E-3,-1.5930234E-2,-0E0,9.138008E-3],"categories":[],"categories_nodes":[],"categories_segments":[],"categories_sizes":[],"default_left":[0,0,0,0,0,0,0,0,0,0,0,0,0,0,0,0,0,0,0,0,0,0,0,0,0,0,0,0,0,0,0,0,0],"id":34,"left_children":[1,3,5,7,9,11,13,-1,15,17,19,21,23,-1,-1,-1,-1,-1,-1,25,27,-1,-1,-1,-1,-1,-1,29,31,-1,-1,-1,-1],"loss_changes":[5.8581157E3,1.0251406E3,6.725315E2,1.9430542E2,1.2351996E2,3.7415787E1,7.797778E1,0E0,2.8672852E1,1.328418E1,1.6626516E1,2.1286583E0,2.5376892E-1,0E0,0E0,0E0,0E0,0E0,0E0,1.8036613E0,1.5015885E0,0E0,0E0,0E0,0E0,0E0,0E0,1.3013482E-1,1.18885964E-1,0E0,0E0,0E0,0E0],"parents":[2147483647,0,0,1,1,2,2,3,3,4,4,5,5,6,6,8,8,9,9,10,10,11,11,12,12,19,19,20,20,27,27,28,28],"right_children":[2,4,6,8,10,12,14,-1,16,18,20,22,24,-1,-1,-1,-1,-1,-1,26,28,-1,-1,-1,-1,-1,-1,30,32,-1,-1,-1,-1],"split_conditions":[-1.03054225E-1,-7.3990446E-1,3.655107E-1,-1.2781475E0,-4.1174656E-1,9.257793E-2,5.7954466E-1,-4.1090026E-1,-9.413937E-1,-5.624798E-1,-2.3442493E-1,-3.2459162E-2,1.4653258E-1,1.7297153E-1,2.715088E-1,-2.5417683E-1,-1.8706338E-1,-1.3559647E-1,-8.7320596E-2,-2.876109E-1,-1.649517E-1,2.4205636E-2,4.978222E-2,7.999041E-2,1.1533973E-1,-5.2309167E-2,-2.8914979E-2,-5.070031E-1,-1.5507579E-1,-4.870405E-3,-1.5930234E-2,-0E0,9.138008E-3],"split_indices":[20,20,20,20,20,20,20,0,20,20,20,20,20,0,0,0,0,0,0,20,20,0,0,0,0,0,0,11,20,0,0,0,0],"split_type":[0,0,0,0,0,0,0,0,0,0,0,0,0,0,0,0,0,0,0,0,0,0,0,0,0,0,0,0,0,0,0,0,0],"sum_hessian":[5.35E2,3E2,2.35E2,1.28E2,1.72E2,8.9E1,1.46E2,1.8E1,1.1E2,7.9E1,9.3E1,4.4E1,4.5E1,3.4E1,1.12E2,6.1E1,4.9E1,4.1E1,3.8E1,5.6E1,3.7E1,1.8E1,2.6E1,1.4E1,3.1E1,3.8E1,1.8E1,1.8E1,1.9E1,7E0,1.1E1,4E0,1.5E1],"tree_param":{"num_deleted":"0","num_feature":"24","num_nodes":"33","size_leaf_vector":"1"}},{"base_weights":[-3.348019E-2,-2.8663561E0,3.6524045E0,-4.938037E0,-1.4340855E0,1.8981978E0,5.0952516E0,-4.1942498E-1,-4.4897637E0,-2.3743327E0,-5.709795E-1,1.0700133E0,2.7350671E0,2.0918389E-1,2.6511395E-1,-2.539105E-1,-1.867647E-1,-1.3953958E-1,-9.1626756E-2,-9.359029E-1,-8.572316E-2,6.653718E-1,7.311079E-2,1.076379E-1,1.5507004E-1,-5.4364193E-2,-2.9445741E-2,-2.4703093E-1,1.2326309E-1,2.4595702E-2,4.1685972E-2,-1.3967387E-3,-1.4655228E-2,4.6761645E-4,8.213556E-3],"categories":[],"categories_nodes":[],"categories_segments":[],"categories_sizes":[],"default_left":[0,0,0,0,0,0,0,0,0,0,0,0,0,0,0,0,0,0,0,0,0,0,0,0,0,0,0,0,0,0,0,0,0,0,0],"id":35,"left_children":[1,3,5,7,9,11,13,-1,15,17,19,21,23,-1,-1,-1,-1,-1,-1,25,27,29,-1,-1,-1,-1,-1,31,33,-1,-1,-1,-1,-1,-1],"loss_changes":[5.983017E3,9.536565E2,6.1986035E2,1.6522095E2,1.5497559E2,7.5704315E1,2.534668E0,0E0,3.2981934E1,1.5182007E1,1.7879906E1,8.177704E0,4.743927E0,0E0,0E0,0E0,0E0,0E0,0E0,2.238655E0,1.5598264E0,3.625555E-1,0E0,0E0,0E0,0E0,0E0,2.2216666E-1,7.452643E-2,0E0,0E0,0E0,0E0,0E0,0E0],"parents":[2147483647,0,0,1,1,2,2,3,3,4,4,5,5,6,6,8,8,9,9,10,10,11,11,12,12,19,19,20,20,21,21,27,27,28,28],"right_children":[2,4,6,8,10,12,14,-1,16,18,20,22,24,-1,-1,-1,-1,-1,-1,26,28,30,-1,-1,-1,-1,-1,32,34,-1,-1,-1,-1,-1,-1],"split_conditions":[-1.20497465E-1,-7.632316E-1,5.41973E-1,-1.3379563E0,-4.2659476E-1,1.7687699E-1,7.6947284E-1,-4.1942498E-1,-9.787031E-1,-6.0122055E-1,-2.5554186E-1,4.3128356E-2,3.396419E-1,2.0918389E-1,2.6511395E-1,-2.539105E-1,-1.867647E-1,-1.3953958E-1,-9.1626756E-2,-3.1189615E-1,-1.649517E-1,-3.2459162E-2,7.311079E-2,1.076379E-1,1.5507004E-1,-5.4364193E-2,-2.9445741E-2,-8.6133265E-1,-1.496427E-1,2.4595702E-2,4.1685972E-2,-1.3967387E-3,-1.4655228E-2,4.6761645E-4,8.213556E-3],"split_indices":[20,20,20,20,20,20,20,0,20,20,20,20,20,0,0,0,0,0,0,20,20,20,0,0,0,0,0,5,20,0,0,0,0,0,0],"split_type":[0,0,0,0,0,0,0,0,0,0,0,0,0,0,0,0,0,0,0,0,0,0,0,0,0,0,0,0,0,0,0,0,0,0,0],"sum_hessian":[5.71E2,3.23E2,2.48E2,1.31E2,1.92E2,1.13E2,1.35E2,1.3E1,1.18E2,9.1E1,1.01E2,5.8E1,5.5E1,2.9E1,1.06E2,6.3E1,5.5E1,4.9E1,4.2E1,5.7E1,4.4E1,3E1,2.8E1,2.4E1,3.1E1,3.8E1,1.9E1,2.5E1,1.9E1,1.7E1,1.3E1,5E0,2E1,6E0,1.3E1],"tree_param":{"num_deleted":"0","num_feature":"24","num_nodes":"35","size_leaf_vector":"1"}},{"base_weights":[-7.701087E-3,-2.7935684E0,3.3394608E0,-4.6278205E0,-1.422385E0,1.4758413E0,4.696833E0,-6.3053803E0,-3.9199944E0,-2.2981133E0,-6.3481563E-1,7.3838943E-1,2.1974745E0,1.8229695E-1,2.52745E-1,-4.0923482E-1,-2.7830368E-1,-2.1583319E-1,-1.6594265E-1,-1.3349807E-1,-9.02222E-2,-1.013813E0,-1.9604991E-1,2.1320425E-2,5.0464284E-2,8.891724E-2,1.2958829E-1,-6.0879845E-2,-3.9948355E-2,-2.006149E-2,-2.0064026E-2,-5.212143E-3,4.3729194E-3],"categories":[],"categories_nodes":[],"categories_segments":[],"categories_sizes":[],"default_left":[0,0,0,0,0,0,0,0,0,0,0,0,0,0,0,0,0,0,0,0,0,0,0,0,0,0,0,0,0,0,0,0,0],"id":36,"left_children":[1,3,5,7,9,11,13,15,17,19,21,23,25,-1,-1,-1,-1,-1,-1,-1,-1,27,29,-1,-1,-1,-1,-1,-1,-1,31,-1,-1],"loss_changes":[5.0912627E3,7.423113E2,6.197981E2,1.250625E2,1.168757E2,5.449379E1,3.450952E1,3.0863037E0,6.8477783E0,9.603912E0,1.4979042E1,3.9898434E0,3.7126923E0,0E0,0E0,0E0,0E0,0E0,0E0,0E0,0E0,9.7084427E-1,1.5386058E0,0E0,0E0,0E0,0E0,0E0,0E0,0E0,2.3707314E-1,0E0,0E0],"parents":[2147483647,0,0,1,1,2,2,3,3,4,4,5,5,6,6,7,7,8,8,9,9,10,10,11,11,12,12,21,21,22,22,30,30],"right_children":[2,4,6,8,10,12,14,16,18,20,22,24,26,-1,-1,-1,-1,-1,-1,-1,-1,28,30,-1,-1,-1,-1,-1,-1,-1,32,-1,-1],"split_conditions":[-1.3014299E-1,-7.632316E-1,4.102128E-1,-1.187496E0,-4.4027814E-1,1.1078257E-1,7.883137E-1,-1.378772E0,-8.9756775E-1,-6.0122055E-1,-2.7735126E-1,-1.9244535E-2,2.4977796E-1,1.8229695E-1,2.52745E-1,-4.0923482E-1,-2.7830368E-1,-2.1583319E-1,-1.6594265E-1,-1.3349807E-1,-9.02222E-2,-3.8298878E-1,-2.0917886E-1,2.1320425E-2,5.0464284E-2,8.891724E-2,1.2958829E-1,-6.0879845E-2,-3.9948355E-2,-2.006149E-2,-1.5900666E-1,-5.212143E-3,4.3729194E-3],"split_indices":[20,20,20,20,20,20,20,20,20,20,20,20,20,0,0,0,0,0,0,0,0,20,20,0,0,0,0,0,0,0,20,0,0],"split_type":[0,0,0,0,0,0,0,0,0,0,0,0,0,0,0,0,0,0,0,0,0,0,0,0,0,0,0,0,0,0,0,0,0],"sum_hessian":[5.44E2,2.97E2,2.47E2,1.26E2,1.71E2,1.05E2,1.42E2,3.5E1,9.1E1,8E1,9.1E1,5.3E1,5.2E1,3.9E1,1.03E2,7E0,2.8E1,5.1E1,4E1,4.3E1,3.7E1,4.8E1,4.3E1,2.6E1,2.7E1,2.8E1,2.4E1,2.2E1,2.6E1,1.9E1,2.4E1,1.4E1,1E1],"tree_param":{"num_deleted":"0","num_feature":"24","num_nodes":"33","size_leaf_vector":"1"}},{"base_weights":[-3.9783888E-2,-2.6060057E0,3.2020674E0,-4.4798837E0,-1.3284683E0,1.2826753E0,4.302348E0,-3.7573776E-1,-4.024402E0,-2.2186952E0,-5.40711E-1,7.1170884E-1,9.4393894E-2,1.5394919E-1,2.3310268E-1,-1.7110108E-1,-2.3261075E-1,-1.2442076E-1,-8.144688E-2,-8.733258E-1,-2.5770912E-2,2.1154672E-2,4.495904E-2,-5.4516967E-2,-3.001499E-2,-1.6243736E-1,1.2856767E-1,-1.2370968E-3,-1.0918955E-2,7.474518E-4,8.60824E-3],"categories":[],"categories_nodes":[],"categories_segments":[],"categories_sizes":[],"default_left":[0,0,0,0,0,0,0,0,0,0,0,0,0,0,0,0,0,0,0,0,0,0,0,0,0,0,0,0,0,0,0],"id":37,"left_children":[1,3,5,7,9,11,13,-1,15,17,19,21,-1,-1,-1,-1,-1,-1,-1,23,25,-1,-1,-1,-1,27,29,-1,-1,-1,-1],"loss_changes":[4.575586E3,7.2841016E2,5.0710718E2,1.400122E2,1.27560394E2,2.9495972E1,5.2639404E1,0E0,2.4872925E1,9.214752E0,1.684398E1,2.084484E0,0E0,0E0,0E0,0E0,0E0,0E0,0E0,2.7314224E0,8.679874E-1,0E0,0E0,0E0,0E0,1.3974905E-1,7.283038E-2,0E0,0E0,0E0,0E0],"parents":[2147483647,0,0,1,1,2,2,3,3,4,4,5,5,6,6,8,8,9,9,10,10,11,11,19,19,20,20,25,25,26,26],"right_children":[2,4,6,8,10,12,14,-1,16,18,20,22,-1,-1,-1,-1,-1,-1,-1,24,26,-1,-1,-1,-1,28,30,-1,-1,-1,-1],"split_conditions":[-1.03054225E-1,-7.707309E-1,3.655107E-1,-1.2996544E0,-4.4027814E-1,9.983489E-2,6.355029E-1,-3.7573776E-1,1.3132042E0,-5.704758E-1,-2.3442493E-1,-3.2459162E-2,9.4393894E-2,1.5394919E-1,2.3310268E-1,-1.7110108E-1,-2.3261075E-1,-1.2442076E-1,-8.144688E-2,-3.502753E-1,-1.5900666E-1,2.1154672E-2,4.495904E-2,-5.4516967E-2,-3.001499E-2,-3.6046988E-1,-9.055402E-1,-1.2370968E-3,-1.0918955E-2,7.474518E-4,8.60824E-3],"split_indices":[20,20,20,20,20,20,20,0,19,20,20,20,0,0,0,0,0,0,0,20,20,0,0,0,0,5,11,0,0,0,0],"split_type":[0,0,0,0,0,0,0,0,0,0,0,0,0,0,0,0,0,0,0,0,0,0,0,0,0,0,0,0,0,0,0],"sum_hessian":[5.48E2,3.06E2,2.42E2,1.23E2,1.83E2,8.9E1,1.53E2,1.4E1,1.09E2,8.5E1,9.8E1,4.7E1,4.2E1,3.7E1,1.16E2,5.9E1,5E1,5.6E1,2.9E1,5.9E1,3.9E1,2E1,2.7E1,3.1E1,2.8E1,2.1E1,1.8E1,7E0,1.4E1,6E0,1.2E1],"tree_param":{"num_deleted":"0","num_feature":"24","num_nodes":"31","size_leaf_vector":"1"}},{"base_weights":[-6.471102E-2,-2.3172975E0,3.1588337E0,-4.019556E0,-9.852332E-1,1.6814837E0,4.3477926E0,-5.7152586E0,-3.337498E0,-1.7168969E0,-2.960581E-1,1.0284171E0,2.4217017E0,1.7752102E-1,2.271167E-1,-4.6987054E-1,-2.572298E-1,-1.8476284E-1,-1.3395731E-1,-1.033371E-1,-6.214571E-2,-6.1371714E-1,8.381303E-2,7.3820144E-1,7.1941614E-2,9.7922884E-2,1.3583446E-1,-3.7507992E-2,-2.2228796E-2,-6.3371494E-2,2.1327394E-1,2.5176832E-2,4.2471673E-2,-6.0749627E-3,1.3594817E-4,-0E0,1.2005594E-2],"categories":[],"categories_nodes":[],"categories_segments":[],"categories_sizes":[],"default_left":[0,0,0,0,0,0,0,0,0,0,0,0,0,0,0,0,0,0,0,0,0,0,0,0,0,0,0,0,0,0,0,0,0,0,0,0,0],"id":38,"left_children":[1,3,5,7,9,11,13,15,17,19,21,23,25,-1,-1,-1,-1,-1,-1,-1,-1,27,29,31,-1,-1,-1,-1,-1,33,35,-1,-1,-1,-1,-1,-1],"loss_changes":[3.971913E3,7.256802E2,3.8730054E2,1.4309595E2,9.106288E1,4.6472473E1,2.298584E0,3.2149292E1,1.3722168E1,1.1692444E1,1.156803E1,5.3902435E0,6.345825E-1,0E0,0E0,0E0,0E0,0E0,0E0,0E0,0E0,7.4708366E-1,8.6690986E-1,3.5056114E-1,0E0,0E0,0E0,0E0,0E0,9.288388E-2,1.1906946E-1,0E0,0E0,0E0,0E0,0E0,0E0],"parents":[2147483647,0,0,1,1,2,2,3,3,4,4,5,5,6,6,7,7,8,8,9,9,10,10,11,11,12,12,21,21,22,22,23,23,29,29,30,30],"right_children":[2,4,6,8,10,12,14,16,18,20,22,24,26,-1,-1,-1,-1,-1,-1,-1,-1,28,30,32,-1,-1,-1,-1,-1,34,36,-1,-1,-1,-1,-1,-1],"split_conditions":[-7.4611016E-2,-7.0409E-1,5.3549564E-1,-1.1670005E0,-3.8298878E-1,2.2528005E-1,7.6947284E-1,-1.469148E0,-8.3388245E-1,-5.050575E-1,-2.1476924E-1,9.257793E-2,3.611476E-1,1.7752102E-1,2.271167E-1,-4.6987054E-1,-2.572298E-1,-1.8476284E-1,-1.3395731E-1,-1.033371E-1,-6.214571E-2,-2.876109E-1,-1.496427E-1,-8.56778E-3,7.1941614E-2,9.7922884E-2,1.3583446E-1,-3.7507992E-2,-2.2228796E-2,-1.792237E-1,-1.2903347E0,2.5176832E-2,4.2471673E-2,-6.0749627E-3,1.3594817E-4,-0E0,1.2005594E-2],"split_indices":[20,20,20,20,20,20,20,20,20,20,20,20,20,0,0,0,0,0,0,0,0,20,20,20,0,0,0,0,0,20,11,0,0,0,0,0,0],"split_type":[0,0,0,0,0,0,0,0,0,0,0,0,0,0,0,0,0,0,0,0,0,0,0,0,0,0,0,0,0,0,0,0,0,0,0,0,0],"sum_hessian":[5.45E2,3.21E2,2.24E2,1.4E2,1.81E2,1.01E2,1.23E2,3.8E1,1.02E2,8.7E1,9.4E1,5.5E1,4.6E1,2.8E1,9.5E1,3E0,3.5E1,6.3E1,3.9E1,4.8E1,3.9E1,5.1E1,4.3E1,3.4E1,2.1E1,2.1E1,2.5E1,2.6E1,2.5E1,2E1,2.3E1,1.3E1,2.1E1,1.1E1,9E0,3E0,2E1],"tree_param":{"num_deleted":"0","num_feature":"24","num_nodes":"37","size_leaf_vector":"1"}},{"base_weights":[-4.9751095E-2,-2.3256967E0,2.8430052E0,-4.102217E0,-1.20794E0,1.1345881E0,3.8911297E0,-3.7816296E0,-4.1324565E-1,-1.9775696E0,-4.742868E-1,6.3920784E-1,8.361756E-2,1.5158473E-1,2.1693854E-1,-1.5822342E-1,-2.2303227E-1,-1.15530804E-1,-7.671504E-2,-7.782767E-1,-9.148276E-2,1.9204382E-2,4.051283E-2,-4.679796E-2,-2.9340712E-2,-2.398618E-1,7.872727E-2,-1.5129441E-2,-4.8777177E-3,4.2838464E-4,8.519783E-3],"categories":[],"categories_nodes":[],"categories_segments":[],"categories_sizes":[],"default_left":[0,0,0,0,0,0,0,0,0,0,0,0,0,0,0,0,0,0,0,0,0,0,0,0,0,0,0,0,0,0,0],"id":39,"left_children":[1,3,5,7,9,11,13,15,-1,17,19,21,-1,-1,-1,-1,-1,-1,-1,23,25,-1,-1,-1,-1,27,29,-1,-1,-1,-1],"loss_changes":[3.3642756E3,5.6242896E2,3.979751E2,1.14336426E2,9.875836E1,2.1876411E1,3.958496E1,2.8704346E1,0E0,8.766449E0,1.05477295E1,1.6203423E0,0E0,0E0,0E0,0E0,0E0,0E0,0E0,8.381939E-1,1.0957325E0,0E0,0E0,0E0,0E0,1.3577664E-1,1.0927208E-1,0E0,0E0,0E0,0E0],"parents":[2147483647,0,0,1,1,2,2,3,3,4,4,5,5,6,6,7,7,9,9,10,10,11,11,19,19,20,20,25,25,26,26],"right_children":[2,4,6,8,10,12,14,16,-1,18,20,22,-1,-1,-1,-1,-1,-1,-1,24,26,-1,-1,-1,-1,28,30,-1,-1,-1,-1],"split_conditions":[-1.03054225E-1,-7.707309E-1,3.6905277E-1,2.219917E0,-4.2659476E-1,9.983489E-2,7.6947284E-1,1.3200772E0,-4.1324565E-1,-6.0122055E-1,-2.5642487E-1,-3.2459162E-2,8.361756E-2,1.5158473E-1,2.1693854E-1,-1.5822342E-1,-2.2303227E-1,-1.15530804E-1,-7.671504E-2,-3.502753E-1,-1.792237E-1,1.9204382E-2,4.051283E-2,-4.679796E-2,-2.9340712E-2,-2.0917886E-1,8.947482E-1,-1.5129441E-2,-4.8777177E-3,4.2838464E-4,8.519783E-3],"split_indices":[20,20,20,19,20,20,20,19,0,20,20,20,0,0,0,0,0,0,0,20,20,0,0,0,0,20,11,0,0,0,0],"split_type":[0,0,0,0,0,0,0,0,0,0,0,0,0,0,0,0,0,0,0,0,0,0,0,0,0,0,0,0,0,0,0],"sum_hessian":[5.09E2,2.85E2,2.24E2,1.09E2,1.76E2,8.6E1,1.38E2,1.03E2,6E0,8.5E1,9.1E1,4.6E1,4E1,5E1,8.8E1,5.7E1,4.6E1,4.6E1,3.9E1,5E1,4.1E1,2E1,2.6E1,2.5E1,2.5E1,2.2E1,1.9E1,1.4E1,8E0,1.2E1,7E0],"tree_param":{"num_deleted":"0","num_feature":"24","num_nodes":"31","size_leaf_vector":"1"}},{"base_weights":[7.282828E-2,-2.0879362E0,2.8484845E0,-3.3417587E0,-6.817224E-1,1.5389093E0,3.9524717E0,-4.765548E0,-2.786393E0,-1.2086636E0,-1.5133819E-1,9.181025E-1,2.1753516E0,1.6287458E-1,2.0559485E-1,-3.574723E-1,-2.1370187E-1,-1.6079465E-1,-1.1618286E-1,-7.39892E-2,-4.5108702E-2,-4.2684627E-1,9.1014825E-2,6.6834295E-1,6.459376E-2,7.874137E-2,1.1718322E-1,-2.6648689E-2,-2.61259E-1,-0E0,2.4646749E-1,2.2814719E-2,3.8001187E-2,-4.6480945E-3,-1.4262678E-2,-2.7711182E-3,3.2288171E-3,5.8094533E-3,1.44993905E-2],"categories":[],"categories_nodes":[],"categories_segments":[],"categories_sizes":[],"default_left":[0,0,0,0,0,0,0,0,0,0,0,0,0,0,0,0,0,0,0,0,0,0,0,0,0,0,0,0,0,0,0,0,0,0,0,0,0,0,0],"id":40,"left_children":[1,3,5,7,9,11,13,15,17,19,21,23,25,-1,-1,-1,-1,-1,-1,-1,-1,27,29,31,-1,-1,-1,-1,33,35,37,-1,-1,-1,-1,-1,-1,-1,-1],"loss_changes":[3.2746821E3,5.386044E2,3.3890356E2,1.1406311E2,4.0485344E1,4.1550415E1,1.6137695E-1,1.9856018E1,1.5624084E1,4.492752E0,5.013428E0,4.355057E0,1.3753815E0,0E0,0E0,0E0,0E0,0E0,0E0,0E0,0E0,3.9640045E-1,5.798454E-1,2.508831E-1,0E0,0E0,0E0,0E0,2.721548E-4,9.611581E-2,1.0735273E-2,0E0,0E0,0E0,0E0,0E0,0E0,0E0,0E0],"parents":[2147483647,0,0,1,1,2,2,3,3,4,4,5,5,6,6,7,7,8,8,9,9,10,10,11,11,12,12,21,21,22,22,23,23,28,28,29,29,30,30],"right_children":[2,4,6,8,10,12,14,16,18,20,22,24,26,-1,-1,-1,-1,-1,-1,-1,-1,28,30,32,-1,-1,-1,-1,34,36,38,-1,-1,-1,-1,-1,-1,-1,-1],"split_conditions":[-7.4611016E-2,-6.0122055E-1,5.521721E-1,-1.0815091E0,-3.420427E-1,1.8781292E-1,7.6947284E-1,-1.378772E0,-8.2839227E-1,-4.4027814E-1,-2.0917886E-1,9.257793E-2,2.6071635E-1,1.6287458E-1,2.0559485E-1,-3.574723E-1,-2.1370187E-1,-1.6079465E-1,-1.1618286E-1,-7.39892E-2,-4.5108702E-2,-2.6544014E-1,-1.3014299E-1,-1.9244535E-2,6.459376E-2,7.874137E-2,1.1718322E-1,-2.6648689E-2,3.4836516E-1,-1.5900666E-1,-1.5871288E-2,2.2814719E-2,3.8001187E-2,-4.6480945E-3,-1.4262678E-2,-2.7711182E-3,3.2288171E-3,5.8094533E-3,1.44993905E-2],"split_indices":[20,20,20,20,20,20,20,20,20,20,20,20,20,0,0,0,0,0,0,0,0,20,20,20,0,0,0,0,12,20,4,0,0,0,0,0,0,0,0],"split_type":[0,0,0,0,0,0,0,0,0,0,0,0,0,0,0,0,0,0,0,0,0,0,0,0,0,0,0,0,0,0,0,0,0,0,0,0,0,0,0],"sum_hessian":[5.44E2,3.06E2,2.38E2,1.61E2,1.45E2,1.1E2,1.28E2,4.3E1,1.18E2,7.2E1,7.3E1,5.7E1,